<?xml version="1.0"?>
<opencv_storage>
<opencv_ml_svm>
  <format>3</format>
  <svmType>C_SVC</svmType>
  <kernel>
    <type>LINEAR</type></kernel>
  <C>2.6699999999999999e+00</C>
  <term_criteria><epsilon>1.1920928955078125e-07</epsilon>
    <iterations>1000</iterations></term_criteria>
  <var_count>1250</var_count>
  <class_count>11</class_count>
  <class_labels type_id="opencv-matrix">
    <rows>11</rows>
    <cols>1</cols>
    <dt>i</dt>
    <data>
      -1 0 1 2 3 4 5 6 7 8 9</data></class_labels>
  <sv_total>55</sv_total>
  <support_vectors>
    <_>
      5.68028554e-05 5.24656789e-05 6.60060323e-05 6.89869557e-05
      5.68145006e-05 7.36347429e-05 6.21967120e-05 4.03312551e-05
      1.03902375e-05 -2.98919133e-07 -4.36127521e-05 -6.60763981e-05
      -4.48104838e-05 -1.49410607e-05 -5.97162907e-05 -7.70178813e-05
      -9.06876157e-05 -8.81318920e-05 -5.67037059e-05 9.63358434e-06
      4.26889783e-05 5.43730530e-05 5.92215838e-05 8.14677405e-05
      5.68521100e-05 4.89801205e-05 3.16972983e-05 6.56898992e-05
      5.97212456e-05 4.73434447e-05 3.78020122e-05 3.56544042e-05
      2.85986116e-05 2.79903834e-05 1.84255896e-05 -4.02347359e-05
      -3.27706402e-05 -2.85360129e-05 -7.98226756e-06 -3.62625397e-05
      -3.47756686e-05 -4.35652400e-05 -5.19457535e-05 -6.88996806e-05
      -6.85770428e-05 -1.98130620e-05 -1.29056639e-06 3.28609422e-05
      5.19432979e-05 5.71529890e-05 1.23826239e-05 1.25270853e-05
      4.18390810e-05 4.73817345e-05 -2.12314333e-07 1.50533351e-05
      2.07263984e-05 1.34426755e-05 4.97563946e-08 -1.10175069e-05
      -2.44198072e-05 -2.61828827e-05 -1.95186058e-05 2.90152980e-06
      -2.28285153e-05 -1.98806174e-05 -2.91136093e-05 -3.82865765e-05
      -5.08666490e-05 -6.67486893e-05 -4.71285312e-05 6.59920261e-07
      9.65258914e-06 1.92789375e-05 2.15563286e-05 1.49517709e-05
      1.10261981e-05 2.23987117e-05 8.75971273e-06 -1.05136860e-05
      3.61371099e-06 1.46884804e-05 6.79048662e-06 -1.98753241e-05
      -2.37511085e-05 -1.99624046e-05 -2.43192189e-05 -1.43104344e-05
      7.06970968e-06 -1.94168206e-05 -1.87753667e-05 -2.78022999e-05
      -3.01847740e-05 -4.77134927e-05 -5.71611090e-05 -3.44005566e-05
      -9.55357223e-07 1.41794999e-05 1.71110678e-05 3.46425918e-06
      1.76259073e-05 1.68412698e-05 1.70265685e-05 1.07716542e-05
      -4.84394468e-06 4.42300416e-06 1.88624817e-05 7.69369944e-06
      -3.37877718e-05 -2.16354783e-05 -1.72730870e-05 -2.07345147e-05
      -1.28080155e-05 6.90481966e-06 -1.89708517e-05 -2.11465831e-05
      -2.72556244e-05 -3.12814736e-05 -5.35098225e-05 -4.99469497e-05
      -9.10479139e-06 -2.69447537e-06 1.44101641e-05 3.24618049e-05
      7.65433197e-06 1.97775607e-05 1.76997401e-05 1.90791907e-05
      3.02878616e-05 -4.64790219e-07 1.03769698e-05 2.14069805e-05
      -3.72940895e-06 -4.11134715e-05 -2.47317803e-05 -1.82070744e-05
      -2.08416295e-05 -1.78169539e-05 1.51419442e-06 -2.08079455e-05
      -2.20351703e-05 -2.80444601e-05 -3.38592690e-05 -5.75917220e-05
      -4.44991238e-05 7.81531253e-06 6.24354061e-06 1.41266173e-05
      4.85979726e-05 2.64372593e-05 1.46922985e-05 1.70510903e-05
      2.60731467e-05 4.20422621e-05 -6.26249630e-06 5.52731308e-06
      1.83881075e-05 -1.16636020e-05 -4.14023270e-05 -2.50981575e-05
      -1.86389661e-05 -2.17734578e-05 -3.56764795e-05 -2.02819938e-05
      -3.30319672e-05 -2.15910932e-05 -2.65382041e-05 -3.62445462e-05
      -4.04797647e-05 -3.25155270e-05 1.29491191e-05 3.18533444e-06
      5.19187506e-06 3.73377989e-05 4.89241756e-05 7.27235238e-06
      1.31589695e-05 3.00727643e-05 3.26729241e-05 -1.43706557e-05
      -4.99128555e-06 -6.97770076e-07 -1.45831291e-05 -4.72469037e-05
      -3.00110114e-05 -1.44480464e-05 -2.88405026e-05 -3.77076794e-05
      -1.79876915e-05 -4.49960044e-06 2.35177822e-06 3.13393161e-06
      -9.25367749e-06 -2.06749428e-05 -2.43159902e-05 1.16728861e-05
      1.79751646e-06 7.75671651e-06 3.88503577e-05 4.04088096e-05
      4.93031212e-06 1.49243851e-05 2.32408074e-05 2.63364618e-05
      -2.56914645e-05 -1.15536632e-05 -6.64276058e-06 -2.59138760e-05
      -4.80716990e-05 -1.49549260e-05 4.60467163e-06 2.18592004e-06
      9.42885981e-06 2.06620462e-05 4.83856420e-05 3.80889032e-05
      2.79833093e-05 -5.72888439e-06 -1.15647545e-05 -2.36945798e-05
      5.43882470e-06 1.13754741e-05 1.36083836e-05 3.53761061e-05
      3.12457742e-05 2.46264290e-06 1.06286316e-05 8.86454291e-06
      1.44326623e-05 -3.24100038e-05 -1.29747214e-05 -9.88338797e-06
      -1.67782182e-05 -4.82635005e-05 -1.12770076e-05 1.49379330e-05
      1.20081395e-05 2.58306227e-05 3.31757510e-05 6.09596864e-05
      3.89721645e-05 3.48133690e-05 1.63642271e-05 -7.44471663e-06
      -1.30882281e-05 -1.02528747e-06 1.16417887e-05 1.46645325e-05
      2.61730183e-05 2.11940132e-05 1.58650994e-06 1.43633097e-05
      6.84725228e-06 5.26324584e-06 -4.01632751e-05 -1.09113962e-05
      -1.02882932e-05 -1.53823985e-05 -2.49760596e-05 1.05840618e-05
      3.53204014e-05 3.80222482e-05 4.73130312e-05 5.70032607e-05
      7.80115806e-05 4.95013846e-05 5.89617521e-05 4.02694532e-05
      1.69405630e-05 -6.92772892e-06 -1.11471343e-06 9.43553096e-06
      1.49116631e-05 1.03487246e-05 8.32224123e-06 6.50124457e-06
      2.45926331e-05 1.31127845e-05 1.77626646e-06 -3.83209117e-05
      -9.95672417e-06 -3.08940580e-05 -3.56072851e-05 -2.36296455e-05
      1.35859682e-05 3.64558982e-05 4.11312467e-05 5.78533618e-05
      6.45786931e-05 9.02233151e-05 6.38728889e-05 7.80368646e-05
      4.40557051e-05 2.52499394e-05 -7.09833421e-06 -1.49237985e-06
      1.04537176e-05 7.05364619e-06 -8.82618679e-06 -1.43631378e-05
      5.90078116e-06 1.90487099e-05 1.36556455e-05 1.79469180e-06
      -3.50287955e-05 -1.49175203e-05 -3.15336911e-05 -4.39072719e-05
      -2.72150392e-05 1.16922265e-05 3.72637587e-05 4.57132155e-05
      6.23766246e-05 7.44267527e-05 9.29268208e-05 7.19573436e-05
      8.57970881e-05 4.57071765e-05 2.73572023e-05 -8.20890637e-06
      -1.34447225e-06 8.01918577e-06 -2.88798151e-06 -1.38289442e-05
      -2.19297872e-05 5.28455394e-06 -5.46827005e-06 3.63992967e-06
      6.36836944e-07 -2.65135550e-05 -6.22854668e-06 -3.69854970e-05
      -4.99505768e-05 -2.41465641e-05 9.45726242e-06 4.84731099e-05
      4.57792703e-05 5.17854241e-05 8.68838688e-05 9.10344170e-05
      7.28852756e-05 7.42920965e-05 3.57661593e-05 2.64433165e-05
      -7.36848233e-06 -2.22602489e-06 -3.77244100e-06 1.47356616e-06
      -1.53523870e-05 -2.98448231e-05 -4.41386692e-06 -8.98037979e-06
      -1.05759837e-05 -1.17081709e-05 -2.60576835e-05 -6.66712731e-06
      -4.90769344e-05 -4.81747265e-05 -2.66521110e-05 1.14047052e-05
      5.00475944e-05 4.59127441e-05 4.66730053e-05 7.95589294e-05
      8.60076761e-05 6.99967422e-05 6.04566303e-05 2.76984902e-05
      2.51833044e-05 -1.26630321e-05 -8.90994943e-06 -1.65974361e-05
      -1.42758563e-05 -2.83081827e-05 -2.15445034e-05 -5.12683209e-06
      -2.93754124e-06 -5.61178013e-06 -1.40581396e-05 -2.67098840e-05
      -5.97959388e-06 -5.66557501e-05 -5.55129045e-05 -4.12378322e-05
      1.69213848e-07 1.90976989e-05 1.35275704e-05 1.35533191e-05
      4.15143804e-05 6.04357374e-05 4.05660794e-05 2.68597469e-05
      -1.55168855e-05 -2.79937340e-05 -4.17411065e-05 -4.06977524e-05
      -3.22466803e-05 -2.81291923e-05 -2.52291393e-05 -5.17799663e-07
      6.29146598e-06 8.10157144e-06 -1.66171558e-05 -2.72316065e-05
      -3.65546221e-05 -1.28303154e-05 -6.23974556e-05 -6.42295272e-05
      -4.87387915e-05 -2.67762389e-05 -6.33685841e-06 -1.18121070e-05
      -1.49637108e-05 1.50015376e-05 3.33330463e-05 1.95852153e-05
      -7.56946804e-07 -5.65118353e-05 -5.45716102e-05 -5.85300477e-05
      -5.88872826e-05 -4.78552465e-05 -3.29587128e-05 -2.01352213e-05
      1.97208351e-06 8.94966979e-06 4.87475575e-07 -2.86672603e-05
      -4.15461982e-05 -4.42701566e-05 -1.23256077e-05 -5.94761987e-05
      -5.85312118e-05 -4.22454577e-05 -2.89067630e-05 -8.48900345e-06
      -1.15898692e-05 -1.98146681e-05 1.28706561e-05 3.21782863e-05
      2.13663970e-05 -4.45881597e-06 -6.41772640e-05 -5.73572906e-05
      -5.67179814e-05 -5.41258560e-05 -4.60487390e-05 -3.48667090e-05
      -2.19785743e-05 -1.63846607e-06 9.41238704e-06 -1.43158359e-05
      -3.06219081e-05 -3.99223318e-05 -4.08416308e-05 -1.07906990e-05
      -5.97593535e-05 -5.56971463e-05 -4.11090368e-05 -3.09103307e-05
      -8.33117247e-06 -6.29327587e-06 -1.70535277e-05 1.52442735e-05
      2.53771777e-05 1.70671210e-05 -6.96741790e-06 -6.43383173e-05
      -6.51971786e-05 -5.46180891e-05 -5.05473181e-05 -4.53129869e-05
      -2.98404721e-05 -1.65332694e-05 3.23489530e-06 4.71773456e-06
      -1.84334840e-05 -3.03029974e-05 -3.72880204e-05 -4.80223898e-05
      -1.59286647e-05 -5.72914796e-05 -4.57407368e-05 -3.80032034e-05
      -1.11524168e-05 -6.65558719e-06 -8.60847649e-06 1.23374650e-06
      2.82741366e-05 9.28548525e-06 1.64540597e-05 -5.18109209e-06
      -6.02335640e-05 -6.91203822e-05 -6.38183046e-05 -4.79898154e-05
      -4.26874249e-05 -1.37312918e-05 -1.66665068e-05 6.57472174e-06
      1.22674840e-06 -1.95422999e-05 -2.92984441e-05 -2.86130926e-05
      -3.61574239e-05 -1.40041375e-05 -4.71770691e-05 -4.53325956e-05
      -3.56242781e-05 -5.26391568e-06 -4.43989029e-06 -1.02983386e-05
      1.96255678e-06 2.97318056e-05 1.13550286e-05 1.72553355e-05
      2.15927173e-07 -5.05789103e-05 -6.69202564e-05 -6.72339957e-05
      -4.29311876e-05 -4.35885922e-05 -7.96759286e-06 -1.34090751e-05
      6.63777200e-06 9.62532613e-06 6.38506981e-06 -2.46595100e-05
      -2.58034215e-05 -2.21720184e-05 -4.77660160e-06 -6.28963899e-05
      -4.91815663e-05 -3.13857090e-05 -6.42719442e-06 -5.43859733e-06
      -1.33268240e-05 7.44342651e-06 3.75245290e-05 1.71898719e-05
      2.48392789e-05 4.44827947e-06 -3.59398400e-05 -6.40886137e-05
      -6.90571978e-05 -4.04384809e-05 -4.28833264e-05 -7.06396668e-06
      -4.97098790e-06 1.47488645e-05 1.17488535e-05 9.91218531e-06
      -1.92862244e-05 -2.36942706e-05 5.79571974e-07 2.89411037e-06
      -5.61468696e-05 -3.94199014e-05 -1.80204952e-05 2.82942938e-06
      -5.11371809e-06 -1.97547834e-05 1.41604196e-05 4.05675237e-05
      2.06436816e-05 2.86584691e-05 2.90209982e-06 -2.52696227e-05
      -5.81763379e-05 -6.90008674e-05 -3.89792549e-05 -4.23237725e-05
      -8.09418543e-06 -2.28731164e-06 2.20846141e-05 9.81767516e-06
      1.29883747e-05 -1.25170009e-05 -6.09125891e-06 1.24357903e-05
      7.04261652e-07 -4.38703682e-05 -2.63978091e-05 -7.72959174e-06
      2.48748529e-05 -1.75103196e-06 1.15593011e-05 3.47890491e-05
      4.36777736e-05 4.37013550e-05 3.25133042e-05 2.23268671e-05
      4.40279427e-06 -3.34952420e-05 -6.25829416e-05 -3.89688976e-05
      -4.14060414e-05 -7.32030776e-06 8.31179204e-06 3.32483469e-05
      2.04925964e-05 1.47484461e-05 8.83340635e-06 7.29320573e-06
      1.88083432e-05 -4.80953759e-07 -1.13405185e-05 -1.11735644e-05
      -4.59191278e-06 4.20551951e-05 3.01367072e-05 5.83623078e-05
      4.27632112e-05 4.44088473e-05 6.20965584e-05 5.78836552e-05
      4.02768928e-05 3.18066595e-05 -5.53107293e-06 -3.92070215e-05
      -3.18002822e-05 -3.16907899e-05 1.13644828e-05 3.93962109e-05
      3.31051087e-05 1.29451282e-05 1.00910820e-05 -8.51903678e-06
      6.31548755e-06 1.15907142e-05 -9.56853455e-07 -1.96055698e-05
      4.72965303e-06 1.88796566e-05 5.38798959e-05 5.72233330e-05
      7.98077308e-05 4.23581223e-05 4.34487592e-05 6.30741342e-05
      7.45477082e-05 5.15072352e-05 1.88458998e-05 -4.57167425e-06
      -3.95691932e-05 -2.80044896e-05 -7.32618173e-06 1.15877019e-05
      4.36749870e-05 3.30942094e-05 -6.32539286e-06 -1.47370001e-05
      -4.16225566e-06 1.28732136e-05 1.37687921e-05 -1.81712289e-06
      -5.16558684e-05 -3.65437995e-06 2.46749260e-05 4.28990061e-05
      3.90685564e-05 7.18148513e-05 4.27337945e-05 5.40345973e-05
      6.40092403e-05 5.10685131e-05 2.15187010e-05 -5.46528054e-06
      -2.80947261e-05 -5.86972092e-05 -3.91447429e-05 -3.17924751e-05
      -1.40306938e-05 1.67616872e-05 3.47539317e-05 4.99177645e-07
      -2.93899802e-06 1.95195116e-06 1.37123170e-05 1.31503411e-05
      -2.23492643e-05 -5.70857010e-05 -1.21814182e-05 2.68847925e-05
      3.82208200e-05 3.28612768e-05 3.85827916e-05 5.88137882e-05
      6.59793368e-05 5.85866219e-05 4.17439005e-05 7.61527735e-06
      -2.18427322e-05 -3.12929951e-05 -5.47105883e-05 -3.87692380e-05
      -4.84413540e-05 -1.74240522e-05 1.95717894e-05 4.44766083e-05
      4.69526958e-06 1.52835673e-06 -7.17090032e-08 6.70708550e-06
      4.77508729e-06 -4.98875452e-05 -5.38899403e-05 -1.15504345e-05
      1.58415241e-05 3.83337283e-05 2.20732818e-05 2.17671168e-05
      6.71821035e-05 6.48996356e-05 5.00027054e-05 4.53666435e-05
      2.03031755e-06 -2.21345126e-05 -2.77837771e-05 -5.64494367e-05
      -4.27163613e-05 -5.18408997e-05 -2.09298578e-05 1.40037710e-05
      5.97375692e-05 1.94597797e-05 5.40646124e-06 1.39913269e-07
      -1.75271578e-06 -1.59290830e-05 -6.89741501e-05 -5.43501155e-05
      -1.49626758e-05 1.51893282e-05 3.79494231e-05 1.50280066e-05
      2.73954174e-05 7.16612194e-05 6.88676737e-05 4.28831918e-05
      4.96315006e-05 4.51183450e-06 -2.23805364e-05 -3.08457420e-05
      -6.02246146e-05 -4.59378571e-05 -5.13940940e-05 -2.66603311e-05
      1.64867397e-05 5.60309381e-05 2.47172011e-05 5.77749597e-06
      -2.78327911e-06 -6.97752603e-06 -2.46573891e-05 -7.78662943e-05
      -4.72240317e-05 -1.55903399e-05 1.41283663e-05 3.83427214e-05
      1.56375445e-05 2.68544482e-05 7.10068925e-05 7.05294660e-05
      3.88116678e-05 3.99649871e-05 1.55037424e-06 -2.23769257e-05
      -3.31442025e-05 -5.93901241e-05 -4.55587979e-05 -4.22065823e-05
      -2.41719063e-05 3.36554854e-06 5.56383166e-05 3.30787698e-05
      -1.02409194e-06 -1.24328635e-05 -7.43913688e-06 -2.79249489e-05
      -6.60325968e-05 -3.41716695e-05 -1.58355688e-05 1.49341377e-05
      4.09018467e-05 1.67608523e-05 2.80524873e-05 7.27336446e-05
      6.36501645e-05 4.51412416e-05 3.21531516e-05 9.54054258e-08
      -2.09896079e-05 -3.34286706e-05 -6.04932793e-05 -4.51165106e-05
      -2.99139574e-05 -1.75773548e-05 -1.21590865e-05 4.95777422e-05
      1.66197569e-05 -5.05180969e-06 -1.58305975e-05 -1.25896258e-05
      -1.99383594e-05 -5.47346317e-05 -3.23632739e-05 -3.35528603e-06
      1.55999169e-05 2.57379525e-05 1.66037389e-05 2.78766529e-05
      7.49274768e-05 6.19718776e-05 4.35833063e-05 3.27059643e-05
      -8.50604283e-06 -2.79572596e-05 -3.33254065e-05 -6.04709967e-05
      -4.72640277e-05 -2.26962602e-05 -1.51616114e-05 -7.84097756e-06
      4.41446246e-05 1.20742479e-05 -1.02533522e-05 -2.11432416e-05
      -1.07513697e-05 -8.89014154e-06 -5.49009164e-05 -3.13516830e-05
      1.42675924e-06 1.22843894e-05 1.85819699e-05 1.50744609e-05
      4.88274891e-05 7.54728899e-05 5.09328347e-05 4.42867895e-05
      4.12242844e-05 -2.50374942e-05 -3.21879197e-05 -3.37915335e-05
      -6.04767447e-05 -4.98786285e-05 -2.45436422e-05 -1.43744619e-05
      -3.62893229e-06 4.37841190e-05 -1.96438532e-06 -1.95482662e-05
      -1.12913249e-05 -7.01504769e-06 -1.02666509e-05 -5.92466022e-05
      -3.01802611e-05 5.30784337e-06 1.39871427e-05 1.58967014e-05
      4.02056185e-06 7.21331235e-05 7.53433997e-05 4.70180166e-05
      4.63283977e-05 3.95935058e-05 -1.83456741e-05 -3.38105056e-05
      -3.33078351e-05 -6.00486783e-05 -4.88573132e-05 -2.68099138e-05
      -1.37552106e-05 -2.84887756e-06 4.66325910e-05 1.04321161e-05
      -2.10773687e-05 -1.39777148e-05 -1.06642647e-05 -1.81714386e-05
      -5.32300764e-05 -2.80403056e-05 2.23070901e-06 1.36098070e-05
      2.42706083e-05 2.19538856e-06 6.66796477e-05 6.72506212e-05
      3.72053109e-05 4.38142742e-05 3.71173082e-05 -1.97721747e-05
      -3.08394301e-05 -3.35337354e-05 -6.07446891e-05 -4.60787378e-05
      -2.19992762e-05 -1.54361824e-05 -2.14072679e-06 4.91125720e-05
      1.09817238e-05 -1.51788345e-05 -1.91342751e-05 -2.17435427e-05
      -1.89394577e-05 -4.58045906e-05 -2.84037178e-05 2.40321583e-06
      5.56537998e-06 1.29085256e-05 -2.00912609e-06 5.52836791e-05
      4.65419507e-05 1.02436161e-05 2.18474852e-05 8.46281819e-06
      -4.05238861e-05 -2.88387382e-05 -3.50008413e-05 -6.01693428e-05
      -4.55064692e-05 -2.22932831e-05 -1.16897054e-05 -2.05406172e-06
      5.11596663e-05 1.69437533e-06 -1.06706930e-05 -1.68983152e-05
      -2.16016215e-05 -1.70867097e-05 -4.83942858e-05 -2.81796674e-05
      -1.42005629e-05 -1.25219194e-05 -9.58732471e-06 -3.20648069e-05
      2.40408335e-05 3.83347178e-05 1.35600158e-05 1.81848773e-05
      -3.82245935e-06 -5.71135861e-05 -5.62478199e-05 -4.47132770e-05
      -5.84385198e-05 -4.52736858e-05 -2.06065542e-05 -9.80578898e-06
      2.95032441e-06 5.10949467e-05 1.83639202e-06 -9.32175408e-06
      -1.16560668e-05 -2.10338931e-05 -1.42347944e-05 -3.95840689e-05
      -2.78100179e-05 -3.56435376e-05 -1.72702166e-05 -1.13406013e-05
      -4.73409636e-05 9.65699473e-06 3.56714118e-05 2.14104766e-05
      1.80891348e-05 -3.00441769e-07 -6.73593022e-05 -6.31986404e-05
      -6.11408686e-05 -4.66764723e-05 -4.25167455e-05 -9.09306618e-06
      -8.99403221e-06 9.56221811e-06 5.40297806e-05 -6.10215193e-06
      -1.21625326e-05 -5.33752927e-06 -1.93031246e-05 1.00145780e-06
      -4.78766888e-05 -4.94752312e-05 -3.98661432e-05 -2.17498491e-05
      -6.81932761e-06 -2.44940002e-05 2.92088171e-05 4.37476447e-05
      8.70053464e-06 2.02588071e-05 -2.59097851e-06 -6.63050596e-05
      -7.06615683e-05 -6.37456833e-05 -5.75882550e-05 -4.18307609e-05
      -1.23148384e-05 9.53730250e-06 3.33135795e-05 6.38368365e-05
      -8.28451357e-06 -9.59502995e-06 1.21006295e-07 -2.14026045e-06
      9.64759693e-06 -4.85185119e-05 -4.72687570e-05 -3.90713722e-05
      -1.78570008e-05 4.11772817e-06 -1.13803244e-05 4.04698112e-05
      5.61279412e-05 9.46499040e-06 1.63565637e-05 7.26593726e-06
      -5.78051004e-05 -6.75086631e-05 -6.58078789e-05 -5.58460015e-05
      -3.65273554e-05 -1.22470819e-05 1.21846942e-05 4.32381203e-05
      6.46931876e-05 -4.06790741e-06 -4.66474103e-06 7.05365164e-06
      2.90942662e-05 -1.36191229e-05 -4.74714288e-05 -5.01032700e-05
      -4.86606004e-05 -9.56508393e-06 -3.88403585e-08 -1.50153191e-05
      4.33085552e-05 4.85165656e-05 7.65016193e-06 8.34696766e-06
      7.13290547e-06 -3.71908645e-05 -5.39364701e-05 -6.83243343e-05
      -5.83006331e-05 -3.25885921e-05 -5.61079469e-06 1.45043614e-05
      5.87722207e-05 6.61783706e-05 1.03746947e-06 3.64508833e-06
      2.38225239e-05 1.88816703e-05 -4.77952672e-05 -5.25452924e-05
      -5.72855970e-05 -6.32313750e-05 -3.31866650e-05 -2.17766465e-05
      -1.99194401e-05 2.66359457e-05 1.41722057e-05 -2.46152422e-06
      -1.62501819e-05 2.10783655e-05 -1.06841990e-05 -5.12059341e-05
      -7.20826574e-05 -6.35910983e-05 -3.11749463e-05 1.66034006e-05
      3.44276777e-05 8.49146018e-05 7.19223972e-05 -1.10732981e-06
      9.64475930e-06 1.94456079e-05 -5.40377300e-07 -5.56656378e-05
      -6.94453192e-05 -6.26688925e-05 -6.32916126e-05 -5.45137445e-05
      -4.96101566e-05 -5.10749451e-05 -3.63897489e-05 -4.23008169e-05
      -4.64779150e-05 -5.58466127e-05 1.43556899e-05 -7.47424247e-06
      -3.94768103e-05 -6.46166809e-05 -5.90410455e-05 -3.28054375e-05
      3.19276623e-05 5.75791382e-05 8.56297338e-05 7.78728572e-05
      6.02585146e-07 3.55369525e-06 2.26168572e-06 -1.61957378e-05
      -7.73162537e-05 -7.73506399e-05 -6.40793151e-05 -5.95878555e-05
      -6.36393088e-05 -6.66673441e-05 -6.91505629e-05 -4.64529221e-05
      -4.54344736e-05 -4.20396063e-05 -3.65009546e-05 3.38101472e-06
      -5.46411820e-06 -2.78421285e-05 -5.02339390e-05 -5.50251243e-05
      -2.71524877e-05 3.04288515e-05 4.40751865e-05 6.05249261e-05
      7.32307526e-05 -1.07167434e-05 -1.41432465e-05 -1.95672874e-05
      -4.38063616e-05 -9.14409902e-05 -7.45045763e-05 -6.11547221e-05
      -5.96855607e-05 -6.06961003e-05 -6.49471331e-05 -6.31730582e-05
      -3.38713944e-05 -3.26816189e-05 -3.45907138e-05 -1.92703683e-05
      9.70271913e-07 -7.06022320e-06 -2.98617360e-05 -3.28919887e-05
      -4.21178338e-05 -2.70012533e-05 1.02215108e-05 2.61113237e-05
      4.83008043e-05 5.21049697e-05 4.37789822e-06 -1.26116947e-05
      -3.82588842e-05 -5.40323490e-05 -7.21717224e-05 -6.80648882e-05
      -4.96385983e-05 -4.12456830e-05 -4.59974071e-05 -5.55826191e-05
      -4.44039906e-05 -3.07771334e-05 -2.75936436e-05 -2.21928567e-05
      -1.24251319e-05 -3.27961902e-06 -1.92352163e-05 -3.45491680e-05
      -2.98500945e-05 -2.43804006e-05 -1.34869979e-05 -2.55095443e-07
      2.60434554e-05 2.52872178e-05 4.17176161e-05 -7.67486290e-06
      -3.38709299e-07 -3.74949741e-05 -5.06045617e-05 -2.05863289e-05
      -1.07222259e-05 -1.56051628e-05 -1.36074950e-05 -1.83479933e-05
      -2.11696042e-05 -9.61997921e-06 2.10368876e-06 1.44900616e-06
      -3.24418215e-06 6.96967300e-06 9.54062489e-06 -1.52626326e-05
      -2.37570421e-05 -1.63146910e-06 1.11088939e-05 9.63735238e-06
      1.59447325e-06 2.89470972e-05 2.78295829e-05 2.77141935e-05
      -6.07399170e-06 -1.76055232e-06 -1.26655286e-05 -2.27480978e-05
      4.37377636e-08 2.32685034e-05 -1.96523415e-05 -1.96107139e-05
      -8.36546315e-06 -8.50944798e-06 3.98737740e-07 1.74867055e-05
      4.29971169e-06 -2.36460806e-07 1.34367451e-06 -1.14936229e-05
      -1.43363231e-05 -9.78174467e-06 3.69931222e-05 4.98361660e-05
      3.45492444e-05 3.55822995e-05 3.63408253e-05 2.84492180e-05
      3.76020216e-05 2.03500840e-05 3.24246116e-06 2.49071818e-05
      8.17618570e-07 5.81584709e-06 2.34278505e-05 3.91542062e-06
      -4.12586523e-05 -1.61143107e-05 -1.11401705e-05 -8.39276345e-06
      1.31174838e-05 -9.81289304e-06 -1.54586560e-05 -2.77615945e-05
      -2.20605780e-05 -5.81496806e-06 2.47190983e-05 7.22314944e-05
      8.47886258e-05 8.46615731e-05 5.17810477e-05 4.79023038e-05
      4.10396715e-05 6.04169363e-05</_>
    <_>
      1.42562867e-05 2.68770655e-05 3.15860816e-05 3.16090336e-05
      3.16995538e-05 3.14083481e-05 3.16266742e-05 3.13174169e-05
      3.21663865e-05 3.15568286e-05 3.08223025e-05 3.21567095e-05
      3.32728378e-05 5.93006553e-05 6.88754008e-05 1.88808042e-06
      7.01698127e-06 7.96442109e-05 9.07580688e-05 5.98391562e-05
      3.58067482e-05 3.86462307e-05 7.37696100e-05 6.61490776e-05
      3.80950587e-05 2.25739859e-05 2.96762591e-05 3.16519909e-05
      3.12381853e-05 3.15939469e-05 3.15575344e-05 3.14135978e-05
      3.15981524e-05 3.18661660e-05 3.11022850e-05 3.23188251e-05
      3.19034480e-05 3.40096740e-05 5.23701128e-05 3.57212448e-05
      3.57848839e-05 1.59220417e-05 5.99914019e-05 6.21489744e-05
      3.54497861e-05 7.15846181e-06 1.36690742e-05 3.25939691e-05
      5.31350888e-05 4.89315753e-05 2.09415412e-05 2.29713587e-05
      3.15183024e-05 3.16625410e-05 3.15774923e-05 3.14643112e-05
      3.16397709e-05 3.15442921e-05 3.07026967e-05 3.24285320e-05
      3.15961115e-05 2.94205729e-05 1.49181587e-05 4.55011395e-05
      2.95061764e-05 3.45357730e-05 1.95492357e-05 -4.31440822e-06
      2.50128178e-05 1.53812853e-05 -1.68748866e-05 9.13584063e-06
      7.70646420e-06 7.99640384e-06 4.62663593e-05 2.13438998e-05
      2.14481879e-05 2.90836688e-05 3.19749051e-05 3.17124905e-05
      3.15194666e-05 3.13644050e-05 3.14666177e-05 3.16131227e-05
      3.31799092e-05 3.29301292e-05 3.62559258e-05 1.12896187e-05
      4.60100528e-05 3.31879273e-05 3.47749847e-05 2.17405341e-05
      -2.67503456e-05 -4.37384369e-05 -2.54555307e-05 -6.11376599e-05
      -1.73485168e-05 -2.03751533e-05 -1.76847589e-05 3.19488572e-06
      2.12426767e-05 2.10578346e-05 2.65414783e-05 3.29454160e-05
      3.15821708e-05 3.14913814e-05 3.17057347e-05 3.16915539e-05
      3.29774703e-05 3.44922701e-05 3.46025081e-05 3.59457044e-05
      1.81744253e-05 4.71083549e-05 3.45266963e-05 3.36512057e-05
      1.61885146e-05 -1.79325980e-05 -7.37336377e-05 -6.37211197e-05
      -6.45470864e-05 -7.50039835e-05 -4.58099166e-05 -3.05377580e-05
      -3.41625419e-05 2.19128833e-05 2.43110608e-05 2.66949501e-05
      3.50857154e-05 3.17041668e-05 3.17241211e-05 3.21274129e-05
      3.18189086e-05 3.15752259e-05 3.37103338e-05 3.74664742e-05
      4.22016819e-05 1.44543310e-05 4.57707247e-05 3.51487324e-05
      3.36908670e-05 8.58252952e-06 -4.45192018e-06 -8.23642040e-05
      -7.12286128e-05 -5.70607335e-05 -6.23878732e-05 -6.20758656e-05
      -3.50307710e-05 -3.61623315e-05 1.30041026e-05 2.57268057e-05
      2.86275317e-05 3.87747423e-05 3.37528872e-05 3.46006091e-05
      3.52049246e-05 3.46760899e-05 3.38957398e-05 3.54812582e-05
      4.45639198e-05 4.33481509e-05 1.11331929e-05 1.58289658e-05
      3.39948347e-05 3.48938702e-05 2.64176492e-06 -1.24986345e-05
      -5.85523121e-05 -8.21906360e-05 -6.69326400e-05 -7.87962781e-05
      -6.34186435e-05 -5.77336832e-05 -4.02676669e-05 9.76162755e-06
      2.13637759e-05 2.51351703e-05 3.18345956e-05 3.31160518e-05
      3.46067791e-05 3.44497676e-05 3.46316046e-05 3.42204439e-05
      4.46269078e-05 4.17896990e-05 3.51959934e-05 3.53887226e-05
      2.13248968e-05 3.62172832e-05 3.11141448e-05 -1.35287883e-06
      2.47422940e-05 -3.66103341e-05 -7.02195903e-05 -7.66557569e-05
      -7.94048319e-05 -6.14206874e-05 -5.98347724e-05 -5.09160600e-05
      9.43157465e-06 1.26882805e-05 1.87762962e-05 2.78285243e-05
      2.42337319e-05 2.40371501e-05 2.44572657e-05 2.42923088e-05
      2.40135905e-05 3.27363487e-05 3.76405951e-05 4.99937050e-05
      3.91731774e-05 3.97959084e-05 4.95763816e-05 3.76739044e-05
      2.83816462e-05 4.58273789e-05 -2.51955271e-06 -6.65833577e-05
      -6.73315590e-05 -6.40036087e-05 -6.09368253e-05 -5.99323357e-05
      -5.04188429e-05 1.04841392e-05 1.18969156e-05 1.02004842e-05
      1.96394685e-05 2.30373171e-05 2.37516924e-05 2.37220302e-05
      2.37639051e-05 2.42177612e-05 2.44911098e-05 5.30755569e-05
      6.81025922e-05 4.53161520e-05 2.74989889e-05 4.75850211e-05
      6.72814349e-05 4.50172993e-05 5.65059563e-05 2.12944386e-07
      -4.67373211e-05 -6.71233647e-05 -6.48519417e-05 -6.02244800e-05
      -5.46732772e-05 -4.46522317e-05 1.20208206e-05 1.23994296e-05
      9.27559267e-06 1.26392679e-05 1.43879006e-05 2.36523138e-05
      2.34415638e-05 2.39233086e-05 2.33620212e-05 2.24876185e-05
      4.32719753e-05 6.00147505e-05 4.09991335e-05 2.44339481e-05
      3.61821403e-05 5.05313037e-05 4.60404044e-05 5.51051562e-05
      1.78030007e-06 -2.31178401e-05 -3.69255213e-05 -4.50117805e-05
      -4.69410406e-05 -5.18213419e-05 -3.98948068e-05 1.93105789e-05
      2.22940143e-05 1.95726643e-05 1.88168997e-05 1.79909748e-05
      2.32523016e-05 2.34872768e-05 1.59457577e-05 1.42745430e-05
      1.84543896e-05 2.46266482e-05 3.50624468e-05 2.66063635e-05
      1.51378745e-05 1.00099651e-05 2.06507630e-05 4.41046614e-05
      5.28886048e-05 9.73682745e-07 -2.45960728e-05 -3.96363357e-05
      -4.16670664e-05 -1.80249281e-05 -2.26961602e-05 -3.37070924e-05
      2.01005296e-05 2.20976472e-05 1.86838224e-05 1.49918123e-05
      1.21936082e-05 1.55565467e-05 2.42962142e-05 6.08912887e-06
      -7.91980710e-07 1.19452579e-05 2.66296070e-06 8.75781734e-06
      1.95272169e-05 4.89631157e-06 -9.29333225e-07 -5.20945423e-06
      3.01723576e-05 5.09067613e-05 1.81092310e-06 -2.76159972e-05
      -4.19825265e-05 -4.11193869e-05 -1.05455792e-05 -1.52435578e-05
      -6.54968107e-06 1.75047062e-05 1.84577293e-05 1.50151427e-05
      1.29603059e-05 1.24339440e-05 1.25981614e-05 1.45469812e-05
      6.65824382e-06 1.44912542e-06 1.19486713e-05 9.63377533e-06
      4.83492295e-06 1.86018387e-05 6.76413947e-06 -5.57933566e-09
      1.47424616e-05 3.69873524e-05 4.67014106e-05 1.00887473e-06
      -2.65826675e-05 -4.13420021e-05 -4.02712394e-05 -3.37279016e-06
      -7.09633423e-06 7.20164235e-06 1.42116032e-05 1.68592342e-05
      1.20871819e-05 1.22393076e-05 1.21991752e-05 1.26570276e-05
      1.73746648e-05 1.06184771e-05 4.88218984e-06 1.07456635e-05
      1.96935671e-05 9.34488344e-06 5.34718638e-05 3.60396589e-05
      2.46929812e-05 3.00650008e-05 3.30257608e-05 4.27184823e-05
      -1.73491017e-07 -2.43341456e-05 -4.20124088e-05 -3.96302421e-05
      -1.52584425e-06 -3.25930137e-06 -4.87335183e-06 1.25976076e-05
      1.43540492e-05 1.16262572e-05 1.22472920e-05 1.22361835e-05
      1.54190220e-05 1.84145738e-05 1.15358562e-05 4.41693419e-06
      1.11644476e-05 1.87614842e-05 5.52568372e-06 5.18453562e-05
      4.51788437e-05 4.52419881e-05 2.75876500e-05 3.16381738e-05
      3.79013691e-05 -8.69272662e-06 -3.13276978e-05 -3.76909120e-05
      -3.71312199e-05 -2.79265720e-07 -8.36618767e-07 -1.01599171e-05
      1.20962077e-05 1.20674495e-05 1.16220963e-05 1.18732705e-05
      1.23244463e-05 1.78206246e-05 1.91771542e-05 1.13331835e-05
      6.70426380e-06 1.37403249e-05 3.10915584e-06 3.21191152e-07
      4.85653654e-05 4.47431266e-05 4.71242638e-05 3.71457463e-05
      2.88411848e-05 -4.06778827e-06 -3.23342392e-05 -3.83338847e-05
      -3.49294642e-05 -3.39427061e-05 -5.74296746e-06 9.11521602e-06
      2.31856702e-05 1.20045597e-05 1.19664310e-05 1.15971470e-05
      1.17234322e-05 1.23782847e-05 1.82135464e-05 1.92407606e-05
      1.14938521e-05 7.07603886e-06 1.38857858e-05 3.23045992e-06
      -2.32136657e-07 4.91654318e-05 4.49681538e-05 4.92055442e-05
      4.23226047e-05 5.87911973e-06 -2.24327032e-05 -5.63214817e-05
      -4.25378530e-05 -3.36299090e-05 -3.45252301e-05 -1.74378365e-05
      4.81776488e-06 3.20410982e-05 1.20008654e-05 1.19706528e-05
      1.15238054e-05 1.16409201e-05 1.23544596e-05 1.81595769e-05
      1.95551711e-05 1.15997127e-05 7.36878428e-06 1.47699920e-05
      2.60659999e-06 -6.21567295e-08 4.44881262e-05 4.51765736e-05
      5.44004834e-05 4.45961377e-05 3.54444501e-06 -2.08120582e-05
      -3.85398489e-05 -4.24055506e-05 -3.40375918e-05 -3.33719945e-05
      -2.46433247e-05 1.58647345e-06 2.13061708e-06 1.20381828e-05
      1.20457880e-05 1.16311940e-05 1.15335306e-05 1.21846406e-05
      1.92798780e-05 1.83460070e-05 9.87007388e-06 6.48999276e-06
      1.43354764e-05 2.66474217e-06 -5.18891277e-08 1.17517684e-05
      4.16429648e-05 5.05089301e-05 2.19166632e-05 1.96019864e-05
      -1.25602091e-05 -3.41209488e-05 -4.13563466e-05 -3.39008802e-05
      -3.28215901e-05 -2.47185635e-05 -2.41739017e-05 -1.16139145e-05
      1.19883425e-05 1.18420794e-05 1.15542571e-05 1.15625435e-05
      1.21467301e-05 1.84559431e-05 1.15356597e-05 8.00349335e-06
      6.42949044e-06 1.24506041e-05 2.78179095e-06 -4.71363393e-07
      2.28209738e-05 4.33033238e-05 4.92628315e-05 3.80101228e-05
      2.78006028e-05 -8.36275012e-06 -3.29913637e-05 -3.99384189e-05
      -1.86407906e-05 -2.95095797e-05 -1.80931365e-05 -2.45911669e-05
      1.24779499e-05 1.20565164e-05 1.20694312e-05 1.17296704e-05
      1.13700189e-05 1.34936763e-05 1.78058763e-05 1.11192358e-05
      7.79609945e-06 4.96190887e-06 5.08473522e-06 -3.91248705e-07
      -1.30656474e-07 4.97277761e-05 4.52933527e-05 5.50561526e-05
      4.05313949e-05 3.05905560e-05 -7.22449204e-06 -3.32918316e-05
      -2.48172819e-05 1.72883529e-06 -1.27852491e-05 -5.78214122e-06
      -1.57298855e-05 3.12924458e-05 1.18816670e-05 1.20031709e-05
      1.20202112e-05 1.28801557e-05 1.49446232e-05 1.80500156e-05
      9.25136374e-06 3.92197171e-06 3.71694091e-06 5.56372015e-07
      8.08463881e-07 -5.53533027e-07 4.94154192e-05 4.82721698e-05
      5.63220565e-05 3.72032700e-05 2.70721703e-05 -6.32568526e-06
      -3.04736041e-05 -1.12887728e-05 1.86741690e-05 2.96219105e-06
      4.49700610e-06 -2.24094606e-06 3.17951562e-05 1.20339955e-05
      1.19883425e-05 1.29387990e-05 1.65946840e-05 1.69726773e-05
      1.75021578e-05 7.16006252e-06 6.99691100e-07 2.83922645e-06
      4.08864116e-06 2.16802232e-06 2.23283246e-06 5.12609404e-05
      5.08763260e-05 5.52851088e-05 2.51928232e-05 2.66944153e-05
      -6.84941278e-06 -2.82819074e-05 -2.11987572e-05 -9.23052994e-06
      -5.81418180e-06 1.79380786e-05 6.48314017e-06 3.04627174e-05
      1.13804126e-05 1.14618051e-05 1.47518003e-05 1.94607564e-05
      1.72364271e-05 1.44358755e-05 6.73702834e-06 8.19633044e-07
      3.58080842e-06 6.49392086e-06 5.46679530e-06 7.45625994e-06
      5.33530219e-05 5.17083281e-05 5.15612082e-05 1.70192743e-05
      2.69555603e-05 -4.28129351e-06 -2.67623836e-05 -3.14283243e-05
      -3.68115361e-05 -3.11079166e-05 7.18840010e-06 3.23954282e-06
      6.24875684e-05 1.15177704e-06 1.65882216e-06 7.47084277e-06
      1.16031533e-05 8.98758663e-06 8.85767440e-06 8.38247888e-06
      3.04823993e-06 6.01650527e-06 8.32460682e-06 9.44487692e-06
      1.11747886e-05 5.67953139e-05 5.67694915e-05 4.30391010e-05
      1.77726542e-05 3.38800091e-05 -2.64839355e-06 -2.62577360e-05
      -3.40299084e-05 -2.88916053e-05 -1.89329421e-05 1.80389525e-05
      1.00172019e-05 7.23041157e-05 2.13669432e-06 4.10902112e-06
      1.10162764e-05 1.33843423e-05 1.26715331e-05 1.26392533e-05
      1.28902093e-05 9.19397007e-06 1.17280024e-05 1.16997726e-05
      1.19385686e-05 1.19576935e-05 5.79525076e-05 5.33705243e-05
      1.94623790e-05 1.18375938e-05 2.54978786e-05 1.63811364e-05
      -2.25965850e-05 -3.22179731e-05 -3.00707125e-05 -1.95248904e-05
      2.05677625e-05 2.37482436e-05 7.54913635e-05 5.80875576e-06
      7.82002189e-06 1.34283664e-05 1.37878933e-05 1.37113457e-05
      1.37300876e-05 1.36744520e-05 1.30731960e-05 1.22342262e-05
      1.39604335e-05 1.39153608e-05 1.33460517e-05 6.16473699e-05
      5.90132295e-05 1.54292829e-05 1.17197724e-05 9.44438489e-06
      1.59985416e-06 -4.60489027e-05 -4.77820104e-05 -3.19001629e-05
      -1.21447174e-05 5.48072785e-05 5.92719480e-05 4.25428625e-05
      6.82618793e-06 8.92370463e-06 1.41998116e-05 1.42468025e-05
      1.37302413e-05 1.37430870e-05 1.38192418e-05 1.40072543e-05
      1.36919225e-05 1.27948051e-05 1.43267389e-05 1.39765116e-05
      6.25102257e-05 5.76355196e-05 1.66200898e-05 1.48399713e-05
      8.07355082e-06 -3.54504155e-05 -5.26486838e-05 -6.66147025e-05
      -3.29707655e-05 -9.12255746e-06 4.71030507e-05 5.13333907e-05
      4.06079344e-05 6.75474348e-06 9.04471563e-06 1.41998116e-05
      1.40984894e-05 1.39499834e-05 1.37491870e-05 1.37287825e-05
      1.37275065e-05 1.42401614e-05 1.19140841e-05 1.38193091e-05
      1.40146631e-05 3.71645692e-05 4.56663001e-05 1.48838435e-05
      1.35967384e-05 1.75822447e-06 -3.88436201e-05 -4.16173934e-05
      -6.51037553e-05 -3.05682552e-05 -1.54921599e-05 3.99811361e-05
      3.99326200e-05 4.39969444e-05 6.82922109e-06 8.50964716e-06
      1.34565134e-05 1.41675973e-05 1.40118582e-05 1.35916007e-05
      1.37145325e-05 1.37287825e-05 1.33827280e-05 1.37033085e-05
      1.36577537e-05 1.29099535e-05 2.59294011e-05 4.04554085e-05
      1.80596999e-05 1.08441736e-05 -3.33132289e-06 -4.04291895e-05
      -3.88740264e-05 -4.12915142e-05 -3.41017221e-05 -1.27484964e-05
      3.76360767e-05 3.79518788e-05 4.32569395e-05 6.84682709e-06
      7.19132186e-06 1.08638205e-05 1.42032331e-05 1.40702396e-05
      1.38954338e-05 1.37039569e-05 1.37519155e-05 1.20065060e-05
      1.40872844e-05 1.31249508e-05 1.24707130e-05 5.89668271e-05
      3.40654587e-05 9.82955771e-06 6.49516733e-06 2.52423933e-06
      -4.20797624e-05 -4.25061553e-05 -4.31243207e-05 -3.86202810e-05
      -1.43796133e-05 3.17766535e-05 3.18050843e-05 4.39673931e-05
      6.82876271e-06 6.80159746e-06 9.84792132e-06 1.41380924e-05
      1.41942701e-05 1.39282774e-05 1.36910767e-05 1.37287825e-05
      1.37791676e-05 1.23739474e-05 1.37876359e-05 1.46982766e-05
      6.24405366e-05 1.97184563e-05 7.05512366e-06 7.10165477e-06
      2.78658263e-06 -3.42344574e-05 -3.79567682e-05 -5.50112672e-05
      -4.79918563e-05 -2.76286173e-05 3.30564899e-06 1.18075832e-05
      5.01400718e-05 6.80159746e-06 6.94666051e-06 9.67384494e-06
      1.40529019e-05 1.41998116e-05 1.40889815e-05 1.39412077e-05
      1.36726048e-05 1.34159454e-05 1.38439891e-05 1.50116412e-05
      1.35258442e-05 6.15803292e-05 2.44241255e-05 1.01812320e-05
      6.33079753e-06 3.98101974e-06 -3.01545424e-05 -3.93074697e-05
      -8.57983614e-05 -7.85313969e-05 -4.75284323e-05 -5.81188033e-06
      8.05615218e-06 5.46536976e-05 6.94666051e-06 6.80159746e-06
      8.16518968e-06 1.25751058e-05 1.41979644e-05 1.40837610e-05
      1.41111477e-05 1.37694205e-05 1.32951945e-05 1.37953130e-05
      1.25542783e-05 1.39359117e-05 6.17316982e-05 3.05923968e-05
      1.10534102e-05 -8.83118173e-06 -2.30789988e-06 -3.25807705e-05
      -3.61664497e-05 -6.85953710e-05 -9.01232197e-05 -5.22504524e-05
      -4.25061853e-06 1.02239228e-05 5.47328418e-05 6.79975028e-06
      6.88863520e-06 6.91764808e-06 1.06294137e-05 1.32658670e-05
      1.32714085e-05 1.32473951e-05 1.28721986e-05 1.28955189e-05
      1.32611203e-05 1.05075842e-05 1.29947057e-05 5.63159701e-05
      2.98014038e-05 1.18435455e-05 -2.30570527e-06 2.43916429e-06
      -3.08254021e-05 -3.30319417e-05 -4.37907547e-05 -6.54042451e-05
      -4.60090996e-05 -8.55374674e-06 6.47126444e-06 5.52013007e-05
      6.85592840e-06 6.83060989e-06 6.80159746e-06 7.98926703e-06
      9.23680909e-06 9.23680909e-06 9.20964339e-06 9.02916327e-06
      8.69432370e-06 8.77609182e-06 7.80692244e-06 8.27896565e-06
      4.51876585e-05 2.26819793e-05 1.66294267e-05 9.05211709e-06
      -7.84167332e-06 -3.27562338e-05 -3.20276667e-05 -3.99184974e-05
      -5.20109425e-05 -4.59819130e-05 -7.92574519e-06 7.40334735e-06
      5.52013007e-05 7.06271112e-06 7.99111422e-06 6.79420873e-06
      6.80159746e-06 6.85777559e-06 6.80159746e-06 6.83060989e-06
      6.80105541e-06 6.25131861e-06 5.94601443e-06 6.64921663e-06
      5.69909162e-06 3.68885521e-05 1.63116147e-05 1.84263554e-05
      1.07636442e-05 -2.67670330e-05 -3.29592222e-05 -3.12574448e-05
      -3.49552683e-05 -3.82845792e-05 -2.30842525e-05 -1.64661719e-06
      7.40587211e-06 5.51712546e-05 7.99111422e-06 1.08343493e-05
      6.79605591e-06 6.91764808e-06 6.79975028e-06 6.79975028e-06
      6.85592840e-06 6.80159746e-06 6.30200293e-06 4.93852940e-06
      6.72212718e-06 5.54956705e-06 2.45598367e-05 1.68647312e-05
      1.75335717e-05 1.17565787e-05 -2.34032068e-05 -3.09640127e-05
      -3.01754935e-05 -3.24279281e-05 -2.84424968e-05 -1.38719461e-05
      -4.51543701e-06 -1.46530522e-06 4.97106485e-05 1.06855923e-05
      1.27781941e-05 9.87693329e-06 9.87139174e-06 9.81890844e-06
      9.93495905e-06 9.87139174e-06 9.84607414e-06 9.43619580e-06
      1.11476202e-05 9.25228505e-06 3.45034891e-06 -1.12356656e-05
      4.04443517e-06 1.86899633e-05 1.91088384e-05 -1.72673554e-05
      -2.96959224e-05 -3.05924514e-05 -2.38508037e-05 -2.62967478e-06
      -1.20237482e-05 -1.50007581e-05 4.83595045e-07 4.46445993e-05
      1.37356101e-05 1.41127739e-05 1.37813868e-05 1.36218650e-05
      1.36798899e-05 1.37645284e-05 1.36775852e-05 1.37356101e-05
      1.32856912e-05 2.27275086e-05 1.56400711e-05 6.31869307e-06
      -1.47217943e-05 -1.43313821e-06 1.13444685e-05 2.03256568e-05
      -1.77635284e-05 -2.77251784e-05 -2.00444683e-05 -6.45162572e-06
      6.66293863e-06 -1.77780657e-05 -2.26498105e-05 1.64676530e-05
      4.43383833e-05 1.43074149e-05 1.42494837e-05 1.41624460e-05
      1.43074149e-05 1.42784966e-05 1.42494837e-05 1.42900226e-05
      1.42493891e-05 1.38689675e-05 2.44604325e-05 1.65771216e-05
      7.05307548e-06 -1.00197367e-05 1.55654689e-05 1.16132906e-05
      2.07513876e-05 -1.75753376e-05 -2.73303158e-05 -1.43468778e-05
      -8.10995152e-06 4.85629653e-06 -1.83682259e-05 -2.35296884e-05
      3.56938690e-05 4.62588323e-05 1.41707987e-05 1.42645640e-05
      1.42142708e-05 1.41417868e-05 1.42182535e-05 1.41707987e-05
      1.42287299e-05 1.41998116e-05 1.40405336e-05 2.49044642e-05
      1.69654231e-05 7.33307979e-06 -1.00325424e-05 1.21501780e-05
      1.10043393e-05 2.08258516e-05 -1.73321969e-05 -7.06039737e-06
      -2.59610874e-06 -1.02027252e-05 6.63656238e-06 -6.96860707e-06
      -9.49463629e-06 4.47179627e-05 5.50836194e-05 1.42142708e-05
      1.40860666e-05 1.41754099e-05 1.42188810e-05 1.41851633e-05
      1.41998116e-05 1.42477993e-05 1.41631608e-05 1.44438000e-05
      2.47943208e-05 1.69948507e-05 7.67902930e-06 -1.78130722e-05
      -1.65170695e-05 6.04878323e-06 1.76043341e-05 8.91169165e-08
      1.87428395e-06 -6.77844173e-06 -9.95553182e-06 7.69016879e-06
      2.00090724e-07 5.87793181e-07 4.26053484e-05 5.80392480e-05
      1.23429108e-05 1.41998116e-05 1.42287299e-05 1.42044219e-05
      1.41998116e-05 1.42744120e-05 1.41809751e-05 1.49440557e-05
      1.65384299e-05 2.84346625e-05 2.08931760e-05 1.08852446e-05
      -1.55136731e-05 -3.18482125e-05 -1.95325210e-05 -6.64327118e-08
      -7.80613209e-06 -1.95947200e-06 -6.63484116e-06 -1.24706730e-06
      1.08308550e-05 -4.82266444e-07 -1.93567212e-06 4.88655496e-05
      5.89629417e-05 1.06940552e-05 1.53598467e-05 1.58147323e-05
      1.58727580e-05 1.59331830e-05 1.59308765e-05 1.61770349e-05
      1.93748965e-05 1.99947444e-05 3.00973843e-05 2.16661210e-05
      1.12483740e-05 -1.48198769e-05 -3.31362862e-05 -3.48113026e-05
      -2.24853156e-05 -7.43597457e-06 -5.08723315e-06 -8.49450134e-06
      5.52004803e-06 1.10038281e-05 4.31274566e-06 -1.21714811e-06
      5.49761244e-05 6.01325773e-05 2.28147273e-05 2.59456883e-05
      2.75124639e-05 2.95433456e-05 2.95577101e-05 2.94730726e-05
      2.98717259e-05 3.30980329e-05 3.30691400e-05 4.32937413e-05
      3.11361437e-05 1.14284139e-05 -1.55468970e-05 -3.45144908e-05
      -3.90019559e-05 -3.12034099e-05 -3.40086735e-05 -3.03920442e-05
      -2.36986471e-05 6.90617617e-06 4.56119642e-06 1.36166432e-06
      2.41620819e-05 5.77793544e-05 6.14736709e-05 2.69096909e-05
      2.72433826e-05 2.96293329e-05 3.35390250e-05 3.36063640e-05
      3.34810939e-05 3.39028920e-05 3.60644663e-05 3.71171445e-05
      4.82231226e-05 3.71487331e-05 2.04012485e-05 -1.67387971e-05
      -4.83494223e-05 -4.22242992e-05 -3.19559149e-05 -5.57879539e-05
      -1.58493349e-05 6.13640623e-06 1.83495667e-05 7.87043791e-06
      2.77354102e-05 5.21607944e-05 5.89776027e-05 6.20507199e-05
      2.68952317e-05 2.68952317e-05 2.78816606e-05 2.94193287e-05
      2.95643913e-05 2.95643913e-05 2.97611950e-05 3.02246099e-05
      3.01110758e-05 4.22951307e-05 3.71055030e-05 4.17279080e-05
      3.88488206e-06 -3.59157166e-05 -2.38892444e-05 -8.66382652e-06
      -2.91165761e-05 -2.26903703e-05 1.86526231e-05 4.15010945e-05
      5.76068051e-05 4.96686152e-05 5.00794340e-05 5.30395046e-05
      5.93806362e-05 2.68806780e-05 2.68662188e-05 2.68662188e-05
      2.70112832e-05 2.68662188e-05 2.69242446e-05 2.71065892e-05
      2.74829654e-05 2.64972132e-05 3.58231409e-05 4.72015563e-05
      5.65329065e-05 3.45979461e-05 7.76025900e-06 -9.04951685e-06
      1.14919635e-06 1.48189538e-05 -2.57787633e-06 1.39250851e-05
      6.64171603e-05 5.65800619e-05 5.01377217e-05 4.84742122e-05
      5.17071239e-05 5.15822903e-05</_>
    <_>
      1.52601697e-05 1.17920408e-05 1.41367145e-05 2.17872766e-05
      2.72752532e-05 2.34664767e-05 -8.67702283e-07 -1.73373883e-05
      -2.23117131e-05 -2.87654020e-05 -4.15821669e-05 -5.26961885e-05
      -5.67890384e-05 -4.37766212e-05 -4.80279377e-05 -4.51050328e-05
      -4.32079869e-05 -4.37375529e-05 -3.83879451e-05 -3.35462792e-05
      -2.20564107e-05 -4.80131621e-06 2.15016917e-05 4.05328137e-05
      4.02487894e-05 5.99247369e-06 5.69092936e-06 2.41807902e-05
      3.15844409e-05 3.14305762e-05 2.84044418e-05 2.02190745e-06
      -1.80481893e-05 -2.25812437e-05 -2.43237992e-05 -5.23592316e-05
      -6.16722318e-05 -5.89871815e-05 -4.15038448e-05 -4.55974478e-05
      -3.54939693e-05 -3.38854443e-05 -3.33658900e-05 -2.83846875e-05
      -2.99400162e-05 -2.69565171e-05 -1.22225574e-05 -8.36591028e-07
      1.70735457e-05 3.96115393e-05 1.27403991e-05 5.01503973e-06
      1.36849822e-05 3.37732672e-05 3.79701632e-05 3.55773336e-05
      7.74467844e-06 -1.03321308e-05 -1.94243967e-05 -2.34290510e-05
      -4.91500214e-05 -6.24309760e-05 -5.46827687e-05 -4.03667400e-05
      -4.36746814e-05 -3.43797437e-05 -3.38856189e-05 -3.31656556e-05
      -2.70006585e-05 -2.75412604e-05 -2.87188723e-05 -2.20166385e-05
      -2.80326713e-05 -1.01798205e-05 2.88837837e-05 1.73490153e-05
      3.52936877e-06 1.00710677e-05 1.98891630e-05 3.82152539e-05
      3.31544834e-05 1.14119712e-05 6.37141625e-07 -4.68532062e-06
      -1.84334131e-05 -4.43647914e-05 -5.95936981e-05 -5.12564256e-05
      -4.06601139e-05 -4.35785478e-05 -3.42325693e-05 -3.36433841e-05
      -3.31059637e-05 -2.59966801e-05 -2.68707445e-05 -2.71077188e-05
      -2.69477678e-05 -2.71600584e-05 -2.41357284e-05 4.66890924e-06
      1.66773134e-05 -2.12346851e-08 8.61524495e-06 1.65977672e-05
      3.72455761e-05 3.10327305e-05 1.11923773e-05 6.48661990e-06
      9.70080328e-06 -7.04717209e-08 -3.18781240e-05 -4.90114544e-05
      -4.75000961e-05 -4.07922926e-05 -4.48358114e-05 -3.47794848e-05
      -3.42082167e-05 -3.21176376e-05 -2.53375856e-05 -2.57119609e-05
      -2.02933534e-05 -2.50503690e-05 -2.39514229e-05 -2.68240547e-05
      -1.49363887e-05 1.23540913e-05 -3.16654564e-06 4.22091080e-06
      1.76065842e-05 3.67070825e-05 3.09626375e-05 1.12306616e-05
      8.95145604e-06 1.49889147e-05 1.11833397e-05 -1.07403039e-05
      -2.26766442e-05 -2.61316254e-05 -2.90272164e-05 -3.64040316e-05
      -2.98006998e-05 -2.31898430e-05 -1.66648788e-05 -2.17650613e-05
      -2.46441577e-05 -1.96790515e-05 -2.54007336e-05 -2.22716553e-05
      -2.13016046e-05 -1.45773420e-05 1.25190309e-05 -3.58670127e-06
      -4.13740690e-06 1.81122159e-05 3.68064975e-05 3.07428709e-05
      1.22661831e-05 1.19268834e-05 1.65476722e-05 1.50603491e-05
      3.49620586e-06 -5.49471588e-06 -8.31611305e-06 -7.42749216e-06
      -1.24320040e-05 -1.08023942e-05 2.92459845e-07 2.35216316e-06
      -1.75500991e-05 -2.35246353e-05 -1.93651231e-05 -2.07727280e-05
      -1.42027793e-05 -9.79533525e-06 -6.28786756e-06 1.24407024e-05
      -3.36181915e-06 -6.11452379e-06 1.55024863e-05 3.49960610e-05
      3.01837863e-05 9.01093063e-06 1.43774623e-05 1.90600440e-05
      1.73382541e-05 2.04296139e-05 1.69800774e-06 -8.16059764e-06
      -6.68735174e-06 -8.46835428e-06 -7.80124446e-06 8.11296388e-07
      4.74257195e-06 -1.74815868e-05 -2.35185707e-05 -1.98544476e-05
      -1.43828192e-05 -2.37972472e-06 6.68572682e-07 1.45098886e-06
      1.16525543e-05 -4.26624774e-06 -5.41932513e-06 9.26418215e-06
      2.79988890e-05 2.75796665e-05 1.26717405e-05 1.33778067e-05
      2.19598023e-05 2.19863468e-05 2.82143264e-05 2.12640680e-05
      4.40449242e-07 -3.53790870e-06 -3.73967600e-06 -3.78660502e-06
      -6.51830135e-07 3.97480835e-06 -2.06084860e-05 -2.66609786e-05
      -2.41418202e-05 -7.34348578e-06 -3.19765763e-06 -1.50734195e-06
      -6.13068778e-07 9.91788420e-06 -4.45479600e-06 -7.17192052e-06
      2.61805849e-06 1.46341981e-05 2.18811201e-05 3.02147364e-05
      2.46221098e-05 2.12420091e-05 2.59860153e-05 3.32130476e-05
      2.81562097e-05 2.05152537e-05 1.69602008e-05 1.66825976e-05
      1.51702152e-05 1.63821114e-05 7.07263462e-06 -1.86727520e-05
      -2.09111695e-05 -3.03070483e-05 -7.15880924e-06 -8.67983908e-06
      -8.54653263e-06 2.71502785e-07 9.97580628e-06 -4.74331273e-06
      -7.25864948e-06 1.25036692e-07 1.24028475e-05 2.66353891e-05
      3.68875408e-05 4.55866175e-05 2.63085603e-05 2.84037196e-05
      3.28728711e-05 2.87702605e-05 2.49009154e-05 2.51674228e-05
      2.49612112e-05 2.08011043e-05 1.94320182e-05 1.94821905e-06
      -1.25430643e-05 -1.85651879e-05 -2.40482714e-05 -1.00377492e-05
      -1.20071572e-05 -1.24941771e-05 1.69274099e-05 9.67755659e-06
      -5.43579154e-06 -8.44954047e-06 -5.61512570e-06 7.74219097e-06
      2.83752961e-05 3.12897901e-05 4.07325169e-05 4.14011120e-05
      3.26704394e-05 2.90887874e-05 2.23884235e-05 2.00852628e-05
      2.05452743e-05 2.04667831e-05 1.58166549e-05 1.52512484e-05
      -3.53564997e-06 -1.40388202e-05 -2.86709910e-05 -2.77895178e-05
      -1.67299495e-05 -1.74178949e-05 -1.55090183e-05 2.22432209e-05
      8.55552935e-06 -4.68565577e-06 -9.64288938e-06 -3.62882088e-06
      4.76704963e-06 2.42177030e-05 3.07344708e-05 3.41176965e-05
      4.29996508e-05 4.94958913e-05 4.43917561e-05 3.12759548e-05
      2.63471429e-05 2.65672188e-05 2.57006977e-05 1.38600890e-05
      8.42833197e-06 -8.83774646e-06 -1.59580213e-05 -3.06477159e-05
      -3.63278050e-05 -2.39809651e-05 -2.23660445e-05 -1.98863509e-05
      2.24568266e-05 8.95082849e-06 -4.82396536e-06 -1.01575006e-05
      -4.19351409e-06 9.17520174e-06 2.60303113e-05 3.41625200e-05
      4.26101287e-05 4.73640066e-05 5.11556245e-05 5.17105618e-05
      4.57452261e-05 4.55849295e-05 4.71173553e-05 4.44373400e-05
      1.90785704e-05 8.17825548e-06 -5.77701030e-06 -1.45140120e-05
      -3.04229397e-05 -3.78668228e-05 -2.58268410e-05 -2.27000746e-05
      -2.02766678e-05 2.31378890e-05 8.84797009e-06 -2.12764121e-06
      -9.84981853e-06 -5.17556600e-06 1.54318550e-05 2.75049533e-05
      3.80426100e-05 5.47547606e-05 5.34026185e-05 5.24177703e-05
      5.32986596e-05 4.77724061e-05 4.95358472e-05 5.15126703e-05
      4.62347198e-05 1.61333392e-05 9.83169775e-06 -4.69067072e-06
      -1.25392098e-05 -2.71330318e-05 -3.89600864e-05 -2.49262885e-05
      -2.02730680e-05 -2.01811545e-05 2.48323504e-05 8.92863682e-06
      4.41828661e-06 -1.04805458e-05 -5.36866037e-06 1.91319450e-05
      3.00086031e-05 4.14946226e-05 5.98060578e-05 5.69569966e-05
      5.61862071e-05 5.83352594e-05 5.15186657e-05 5.26427211e-05
      5.24289098e-05 4.82005635e-05 1.64930443e-05 1.67952367e-05
      -3.45051467e-06 -1.11336904e-05 -1.99354454e-05 -3.93515656e-05
      -2.79085634e-05 -2.05469441e-05 -1.46203784e-05 2.87672956e-05
      1.11230374e-05 6.55066378e-06 -1.17510199e-05 -5.87481509e-06
      1.97847094e-05 3.14522003e-05 4.56418056e-05 6.11604919e-05
      6.08522278e-05 5.80686756e-05 6.05279711e-05 5.28031705e-05
      5.29653043e-05 5.16999535e-05 4.84571610e-05 2.25600434e-05
      1.60637210e-05 -8.93187189e-06 -5.73474745e-06 -1.95602097e-05
      -3.94412309e-05 -2.88451574e-05 -2.23220832e-05 -5.19888908e-06
      3.59811347e-05 1.23708687e-05 7.14746693e-06 -1.24191065e-05
      -7.23890025e-06 2.12349314e-05 3.26188165e-05 4.64205659e-05
      5.99876112e-05 6.41283186e-05 5.85332855e-05 6.04206834e-05
      5.34478058e-05 5.22291193e-05 5.14467429e-05 4.93557309e-05
      2.34277431e-05 1.58351413e-05 -8.85502232e-06 -3.77197466e-06
      -2.67741925e-05 -3.92972979e-05 -2.91095839e-05 -2.35970310e-05
      -1.65863682e-07 4.09068743e-05 1.24603948e-05 7.59166596e-06
      -9.84287908e-06 -1.96258588e-06 2.38008433e-05 3.16696751e-05
      3.58719735e-05 3.87194959e-05 3.62843602e-05 2.85368133e-05
      3.00868214e-05 2.35080788e-05 2.27103792e-05 1.99845363e-05
      2.00282029e-05 1.20952982e-05 1.12704183e-05 -9.08623861e-06
      -8.74467059e-06 -3.00683350e-05 -3.52115640e-05 -2.89555701e-05
      -2.40969421e-05 -1.55365979e-06 3.66698550e-05 1.04532564e-05
      7.75705485e-06 -7.03046544e-06 1.10721639e-05 2.84926900e-05
      1.30303906e-05 1.57595059e-05 1.65014353e-05 1.82578297e-05
      1.11286317e-05 1.17072686e-05 4.51332926e-06 2.85137889e-06
      1.69911220e-06 9.96916810e-07 -2.46099125e-06 2.10214512e-06
      -8.26702671e-06 -9.54170173e-06 -2.71187218e-05 -3.35901532e-05
      -2.92776858e-05 -2.42445039e-05 -6.32211368e-06 3.17993618e-05
      3.16811929e-06 8.18563876e-06 -3.28587339e-06 2.38158482e-05
      3.50805203e-05 1.27024041e-05 1.75265050e-05 1.59571446e-05
      1.54199588e-05 6.02468617e-06 1.64227379e-06 -1.43170446e-05
      -2.07088979e-05 -2.06880868e-05 -2.14457687e-05 -2.55866817e-05
      -8.08055756e-06 -1.93861924e-05 -2.01458315e-05 -1.83518550e-05
      -2.75631028e-05 -2.85367005e-05 -2.46294021e-05 -4.63694278e-06
      2.81342145e-05 4.51760525e-06 1.42508525e-05 1.32419364e-05
      1.22132960e-05 1.42370754e-05 8.01821079e-06 1.58828170e-05
      1.41808669e-05 1.04920864e-05 -7.78110189e-06 -2.46073450e-05
      -3.07490664e-05 -2.90726530e-05 -2.95188911e-05 -2.99797430e-05
      -2.57386491e-05 -8.98662620e-06 -2.10876151e-05 -2.78418211e-05
      -2.37518980e-05 -3.52798306e-05 -3.42383755e-05 -2.26168468e-05
      7.86468445e-06 2.82905021e-05 1.18683756e-05 1.85011431e-05
      2.29028901e-05 1.23105556e-05 6.02973478e-06 7.91127150e-06
      1.59880074e-05 1.12913176e-05 3.73204171e-06 -2.26499160e-05
      -3.47317291e-05 -3.84159939e-05 -3.46345187e-05 -3.44557193e-05
      -3.23284767e-05 -2.70746859e-05 -1.02140639e-05 -2.29544403e-05
      -3.54734912e-05 -3.25467881e-05 -5.14514031e-05 -4.54590954e-05
      -2.48583874e-05 9.90020180e-06 2.03743766e-05 1.83708162e-05
      2.54141360e-05 3.30737348e-05 4.96203847e-06 -9.95334403e-07
      1.08791101e-05 1.61515400e-05 6.52468907e-06 -1.22830324e-05
      -3.23240274e-05 -5.68323667e-05 -5.11686012e-05 -5.09780039e-05
      -5.07991790e-05 -4.38429561e-05 -4.14908318e-05 -1.62203851e-05
      -2.78281641e-05 -3.58402758e-05 -4.20010110e-05 -5.90947566e-05
      -4.65788507e-05 -2.87200601e-05 2.02233769e-05 1.57080995e-05
      2.58851851e-05 3.31656520e-05 2.62735321e-05 2.69883458e-06
      1.16519084e-06 1.06812504e-05 5.32258946e-06 -1.96756482e-05
      -3.32564196e-05 -4.04213133e-05 -5.46917581e-05 -4.79107439e-05
      -5.13897248e-05 -4.96233588e-05 -4.51235028e-05 -4.56103517e-05
      -2.88738192e-05 -3.12933844e-05 -3.65747401e-05 -4.12550799e-05
      -5.03491428e-05 -3.76751050e-05 4.68565668e-06 2.33627215e-05
      1.20563391e-05 4.21033219e-05 2.60577108e-05 2.51769397e-05
      5.76012962e-06 1.38231144e-06 4.39949463e-06 -1.46495768e-05
      -3.32082891e-05 -3.45818844e-05 -3.68919609e-05 -4.47736893e-05
      -4.56764501e-05 -5.17867411e-05 -4.70568812e-05 -5.75906415e-05
      -5.29243480e-05 -3.31072042e-05 -3.18908205e-05 -4.11288129e-05
      -4.00043937e-05 -2.87620514e-05 4.53189341e-06 2.45795072e-05
      1.92861880e-05 9.33504816e-06 4.07557163e-05 1.46684006e-05
      2.14265947e-05 6.45752880e-06 -3.71976898e-06 -7.32854778e-06
      -1.97916052e-05 -3.30272233e-05 -3.12059674e-05 -3.63487670e-05
      -4.14022215e-05 -4.56212074e-05 -5.14654603e-05 -4.77106587e-05
      -6.14664750e-05 -5.88875846e-05 -3.33591306e-05 -3.07223054e-05
      -2.34121999e-05 -2.38977100e-05 6.62004368e-06 2.81428111e-05
      1.78170721e-05 1.57715276e-05 8.84993187e-06 4.56369526e-05
      1.72290329e-05 1.03549783e-05 -2.13698354e-06 -1.34876791e-05
      -1.82430340e-05 -2.99267358e-05 -3.02956869e-05 -2.81674183e-05
      -3.10512260e-05 -3.68336659e-05 -4.32007655e-05 -4.51139931e-05
      -4.73768378e-05 -5.41572626e-05 -5.19977330e-05 -2.31544127e-05
      -1.57094655e-05 -9.05677553e-06 5.18524348e-06 2.87424464e-05
      2.56604708e-05 1.63984696e-05 1.41034116e-05 8.84678229e-06
      5.10822392e-05 2.14636093e-05 1.00005809e-06 -4.18305217e-06
      -1.91268045e-05 -2.25094373e-05 -3.24987595e-05 -2.78527259e-05
      -1.53692781e-05 -1.53322017e-05 -2.13049916e-05 -2.54210263e-05
      -2.19409030e-05 -2.84199650e-05 -3.95094139e-05 -3.23944223e-05
      -5.07769391e-06 -4.34145750e-06 1.33525382e-05 2.48613469e-05
      2.82713499e-05 2.11118659e-05 1.49774514e-05 1.35811415e-05
      8.54503196e-06 5.06329270e-05 2.08113670e-05 4.00391582e-06
      -3.52472102e-06 -2.30273963e-05 -2.74675367e-05 -3.20097824e-05
      -2.11257302e-05 -3.13239480e-06 5.43385295e-06 3.69743452e-06
      1.08496688e-05 1.55677299e-05 6.97267023e-06 -3.54801728e-06
      8.37354855e-06 1.64377798e-05 2.12712184e-05 2.39913552e-05
      2.11468778e-05 2.16027329e-05 2.17032175e-05 1.50970409e-05
      1.35618984e-05 8.07803463e-06 3.93128321e-05 1.43958232e-05
      -7.79971742e-07 -5.49844344e-06 -1.56539172e-05 -2.76992032e-05
      -2.89972959e-05 -1.64590110e-05 -1.10124420e-05 8.64235881e-06
      9.86809755e-06 1.56752430e-05 1.42503859e-05 9.39350866e-06
      6.90072284e-07 2.11692968e-05 3.58578181e-05 2.80623826e-05
      2.31103804e-05 2.14621214e-05 2.21539303e-05 2.13189433e-05
      1.54487916e-05 1.14961404e-05 7.93056188e-06 3.32184718e-05
      4.10243456e-06 -5.35163690e-06 -4.88518663e-06 -1.02913491e-05
      -3.14779390e-05 -2.92529221e-05 -1.25805718e-05 -3.41001964e-06
      3.18217353e-05 3.50739247e-05 2.99016410e-05 2.87908388e-05
      2.73754249e-05 2.31741851e-05 3.34525212e-05 3.65591877e-05
      2.51378624e-05 2.09695500e-05 2.13519033e-05 2.20482598e-05
      2.18141795e-05 1.68998322e-05 8.44039550e-06 7.93056188e-06
      2.42609858e-05 3.46855927e-06 -6.47128672e-06 -6.73762815e-06
      -4.49963227e-06 -2.71075369e-05 -2.72734105e-05 -9.13353961e-06
      4.71577596e-06 3.63558247e-05 3.56935343e-05 2.48087345e-05
      2.88878800e-05 2.91961587e-05 2.62934354e-05 3.37284109e-05
      3.10572905e-05 1.85376957e-05 1.61541466e-05 1.97008667e-05
      2.12114628e-05 2.14752563e-05 1.68193492e-05 7.94123389e-06
      7.91560615e-06 1.50781871e-05 2.97901283e-06 -7.57800944e-06
      -4.80221934e-06 -2.14509487e-06 -2.05386787e-05 -1.75952082e-05
      -7.68689370e-06 5.51161247e-06 3.75485397e-05 2.99179519e-05
      2.53372327e-05 2.68453514e-05 2.81182820e-05 2.92898148e-05
      3.83234401e-05 2.71096160e-05 1.58962939e-05 1.50643982e-05
      1.95372177e-05 2.04933240e-05 2.01310359e-05 1.43901307e-05
      7.95146752e-06 7.48937509e-06 8.54841255e-06 1.11532643e-06
      -6.55011763e-06 -6.88240061e-06 -3.17792183e-06 -1.65542842e-05
      -1.04765022e-05 -5.50228879e-06 1.44760870e-05 3.11289878e-05
      1.80820516e-05 2.74193371e-05 2.37844779e-05 2.72818979e-05
      3.12304946e-05 3.87181572e-05 2.59487751e-05 1.43714533e-05
      1.52852899e-05 1.93183623e-05 2.02885294e-05 1.66544196e-05
      1.34610027e-05 7.55420160e-06 7.26504277e-06 4.42397140e-06
      3.36158928e-06 -4.31019271e-06 -8.73424960e-06 -1.03821885e-05
      -1.87036221e-05 -4.39888345e-06 1.71453473e-06 1.61538610e-05
      2.52708542e-05 1.51738495e-05 3.09911266e-05 2.26423781e-05
      2.74268587e-05 3.08492599e-05 3.81692989e-05 2.51565507e-05
      1.45308686e-05 1.46779230e-05 1.63880577e-05 1.91913678e-05
      1.33242647e-05 1.27198628e-05 7.18161891e-06 6.79394225e-06
      5.71056717e-06 9.40781865e-06 6.53313350e-07 -6.24376025e-06
      -1.44543146e-05 -1.98544822e-05 6.89629076e-07 1.39001859e-05
      2.65669314e-05 1.98514936e-05 1.49479902e-05 2.54108563e-05
      2.05641263e-05 2.62989106e-05 3.08950403e-05 3.71103706e-05
      2.49189507e-05 1.46521461e-05 1.41742312e-05 1.35585487e-05
      1.44422629e-05 1.23468781e-05 1.26011946e-05 6.64787831e-06
      6.17498927e-06 3.87215005e-06 1.30208782e-05 4.32370234e-06
      -3.79740368e-06 -1.35587425e-05 -2.03424170e-05 1.09928055e-06
      2.06186141e-05 2.49734421e-05 -2.33324909e-06 -7.76083016e-06
      8.51824552e-07 1.31408584e-07 5.19566584e-06 1.89061848e-05
      3.59258374e-05 2.31269169e-05 1.40090915e-05 1.35517221e-05
      1.21476705e-05 1.15370203e-05 1.22206529e-05 1.25142442e-05
      6.52661265e-06 6.07775928e-06 -1.97693089e-06 1.26229052e-05
      5.27128577e-06 -3.22555502e-06 -1.45189260e-05 -2.26145730e-05
      -4.43871272e-07 1.69114173e-05 1.89723287e-05 2.08842198e-06
      -1.53475576e-05 -9.12941505e-06 -7.00744931e-06 -3.03106094e-06
      -1.56753700e-07 2.08358779e-05 1.70011426e-05 1.38925197e-05
      1.28266274e-05 1.23010104e-05 1.10912588e-05 1.15402026e-05
      1.25253728e-05 7.16523118e-06 6.31704734e-06 -1.35109781e-06
      9.16212412e-06 5.60117269e-06 -3.69499730e-06 -1.38858641e-05
      -2.47248063e-05 -2.30507908e-06 1.11554791e-05 1.54310819e-05
      1.12044218e-05 -2.94036795e-06 -8.78961237e-06 -2.94640495e-06
      -3.35633740e-06 -5.48921935e-06 5.12104670e-08 5.44088152e-06
      1.45904487e-05 1.80321222e-05 1.71819011e-05 1.23141499e-05
      1.14955546e-05 1.21471849e-05 8.58774274e-06 6.27965846e-06
      -5.73557429e-07 6.62999309e-06 1.58485964e-05 6.96389952e-06
      -3.37732581e-06 -1.42155031e-05 -1.93113078e-06 6.69415977e-06
      6.71625230e-06 7.42366092e-06 -8.16091233e-06 -1.91275485e-05
      -6.55091799e-06 -1.66369446e-05 -3.17501399e-05 -2.37982858e-05
      -2.90134994e-05 2.88965862e-06 2.16746448e-05 2.26989032e-05
      1.92800853e-05 1.09312132e-05 1.18344306e-05 1.03093789e-05
      5.66648350e-06 -1.50998332e-07 7.10506720e-06 1.86489451e-05
      1.07061214e-05 -8.56430177e-07 -1.31473962e-05 -4.91436458e-06
      -1.30208109e-05 -1.23846785e-05 -3.08314293e-06 -1.71707379e-05
      -2.68177591e-05 -1.13220967e-05 -1.39767026e-05 -2.74787108e-05
      -2.15224773e-05 -3.10611285e-05 -2.00778704e-05 1.59486372e-05
      2.23494226e-05 2.23237876e-05 1.39401409e-05 1.10293104e-05
      1.14870636e-05 5.71466353e-06 -4.23331039e-06 -9.63540629e-07
      8.38648793e-06 -1.80852135e-06 -7.10725914e-08 -1.25606693e-05
      -9.04613808e-06 -2.54109927e-05 -2.38326520e-05 -1.82748008e-05
      -2.67703399e-05 -2.22581384e-05 -2.12608556e-05 -1.17665131e-05
      -2.14601987e-05 -1.32707237e-05 -2.59432927e-05 -2.27184992e-05
      -9.28250756e-07 1.90957071e-05 2.27952369e-05 1.99182505e-05
      1.03189013e-05 1.19576553e-05 7.25233667e-06 -2.15751152e-05
      -2.16032713e-05 -9.87637395e-06 -1.21522826e-05 -9.00850864e-06
      -1.28995362e-05 -1.67053840e-05 -3.45023509e-05 -2.54328133e-05
      -2.56187686e-05 -2.59957487e-05 -2.17823472e-05 -1.86378966e-05
      -2.11355309e-05 -2.48598444e-05 -1.90982119e-05 -1.69024715e-05
      -1.12539219e-05 7.27732686e-06 1.68947445e-05 2.43022514e-05
      2.24844534e-05 1.47581295e-05 1.12044690e-05 8.66288883e-06
      -3.60054037e-05 -2.26699503e-05 -1.59522751e-05 -1.26757950e-05
      -1.30107164e-05 -1.29468453e-05 -3.04165696e-05 -3.31485899e-05
      -2.54411952e-05 -2.55811083e-05 -2.71026420e-05 -2.53803464e-05
      -1.81008836e-05 -1.80758852e-05 -2.20569873e-05 -2.37331733e-05
      -1.32735468e-05 -4.44171610e-06 1.51328613e-05 1.76946214e-05
      1.96147357e-05 2.65893232e-05 2.04888438e-05 1.43715424e-05
      1.04943256e-05 -2.84146172e-05 -2.03777527e-05 -2.10935104e-05
      -1.33721624e-05 -4.44323632e-06 -8.36250911e-06 -3.52665556e-05
      -3.10803152e-05 -2.57533466e-05 -2.67421765e-05 -2.72875477e-05
      -2.91500164e-05 -2.27470537e-05 -1.96612727e-05 -1.77208567e-05
      -2.18137084e-05 -1.34351012e-05 -5.24375946e-06 1.49905272e-05
      1.70558214e-05 2.71806730e-05 3.83211227e-05 3.32882264e-05
      2.62880367e-05 1.50859414e-05 -1.35466880e-05 -9.52126175e-06
      -2.04755470e-05 -1.19321185e-05 3.81793797e-08 6.66253709e-06
      -2.93920039e-05 -3.86951506e-05 -3.86032116e-05 -3.81034697e-05
      -4.06834624e-05 -4.46253434e-05 -3.87577275e-05 -2.91944598e-05
      -1.84029504e-05 -2.12938812e-05 -1.33517160e-05 -3.95631469e-06
      1.52693647e-05 1.75830337e-05 3.04960085e-05 4.21590958e-05
      3.66658460e-05 3.03153229e-05 2.24721443e-05 1.59233059e-06
      9.57034081e-06 -7.11097709e-06 -1.73699664e-05 -8.91660056e-06
      1.00146917e-05 -1.96039055e-05 -4.40214899e-05 -4.48699429e-05
      -4.27520972e-05 -4.73367909e-05 -4.78107686e-05 -4.48952342e-05
      -4.84377524e-05 -2.44159910e-05 -2.20330312e-05 -1.34170214e-05
      4.12523832e-06 1.66925438e-05 2.17619327e-05 3.96746618e-05
      4.19520547e-05 3.23028289e-05 3.05204194e-05 2.96169273e-05
      9.90108401e-06 2.04187236e-05 2.73386104e-06 -1.97716599e-05
      -1.88028935e-05 -3.47292416e-06 -2.15611217e-05 -3.08681520e-05
      -4.73185828e-05 -4.68399121e-05 -4.65728044e-05 -4.31253829e-05
      -4.69297265e-05 -4.87968464e-05 -4.32317720e-05 -2.09086193e-05
      1.73022113e-06 1.15975190e-05 1.99218957e-05 3.58292418e-05
      4.20410870e-05 3.41575906e-05 3.04475216e-05 3.04598525e-05
      3.04629266e-05 2.17877896e-05 2.32132661e-05 1.23355903e-05
      2.33364972e-07 -1.22049842e-05 -1.08199765e-05 -1.92468597e-05
      -1.35812115e-05 -2.60751385e-05 -2.83683457e-05 -2.89009859e-05
      -1.38949899e-05 -2.25559488e-05 -1.99012939e-05 -1.74309243e-05
      -1.33645267e-06 1.69966042e-05 1.95304638e-05 2.61953937e-05
      3.24574539e-05 3.22775013e-05 3.01945511e-05 2.87463354e-05
      2.97463157e-05 3.04629266e-05</_>
    <_>
      5.88092335e-05 3.36211815e-05 -5.45489775e-06 3.78270261e-06
      1.02666527e-05 -3.13204077e-06 -1.03484454e-05 -2.40015088e-05
      -5.88219518e-05 -7.97546600e-05 -8.56392289e-05 -8.47822012e-05
      -8.20407950e-05 -2.83556637e-05 2.13537842e-05 -2.16376484e-05
      -6.91893874e-05 -7.57951566e-05 -7.20895769e-05 -5.88762668e-05
      -1.76594385e-05 3.80270831e-05 5.18735505e-05 -4.08106780e-06
      -4.38498100e-05 3.10655087e-05 -6.39383961e-06 -9.55323230e-06
      8.42001009e-06 6.88057617e-06 -1.44757041e-05 -2.27623132e-05
      -3.64791194e-05 -4.04451202e-05 -6.11193827e-05 -9.37186924e-05
      -9.99086042e-05 -9.09797163e-05 -7.29945077e-06 1.37586758e-05
      1.71620486e-05 -3.49192451e-05 -8.85556146e-05 -4.83301774e-05
      -4.90638995e-05 -4.29561733e-05 -2.69159773e-06 5.45387484e-05
      1.55742316e-06 -3.75383461e-05 4.47425264e-05 -3.12876909e-06
      -4.91955825e-06 1.54226382e-05 8.97306290e-06 -9.61244223e-06
      -1.76144858e-05 -3.35320001e-05 -3.69739028e-05 -3.73064795e-05
      -8.22285729e-05 -9.53636409e-05 -7.16268114e-05 -3.83437055e-06
      1.17841983e-05 3.68394940e-05 -2.31944923e-05 -1.10325505e-04
      -3.99403434e-05 -2.94539495e-05 -4.87586731e-05 1.85436909e-06
      3.43918073e-05 -1.48957652e-05 -2.29763864e-05 5.20448375e-05
      -5.68219275e-06 -7.18791580e-06 1.54397330e-05 6.31234343e-06
      -6.89822855e-06 -1.86001162e-05 -3.34978977e-05 -3.79969133e-05
      -3.59359765e-05 -7.66785815e-05 -8.97460995e-05 -5.45549447e-05
      -6.83834241e-06 1.61278222e-05 3.86545144e-05 4.43875297e-06
      -8.88471550e-05 -8.95590711e-05 -1.70414442e-05 -4.61399686e-05
      -5.70422844e-06 -3.90593959e-05 -1.05696541e-04 -4.21006007e-05
      6.85722043e-05 -1.19986917e-05 -5.10051905e-06 1.39905687e-05
      1.16669853e-05 -9.42700717e-06 -1.61052103e-05 -3.11291806e-05
      -4.01410398e-05 -2.39293477e-05 -6.32783995e-05 -7.20295720e-05
      -4.76921596e-05 3.51472136e-06 1.81187697e-05 3.91825415e-05
      1.75077548e-05 -6.24084278e-05 -1.07752690e-04 -3.30564944e-05
      -8.42612008e-06 -1.90707196e-05 -4.78534384e-05 -1.17469528e-04
      -1.19736716e-04 1.25955441e-04 7.98594556e-06 -5.47348827e-06
      5.18438674e-06 1.21175162e-05 -1.38538489e-05 -1.83689790e-05
      -2.30164987e-05 -4.07257248e-05 -2.45053525e-05 -5.87559589e-05
      -6.78935539e-05 -3.66803215e-05 4.94492906e-06 2.75948278e-05
      3.27145463e-05 2.07940320e-05 -4.91859173e-05 -1.12524685e-04
      -3.96576070e-05 2.93867706e-05 2.11579736e-05 -1.62317508e-06
      -4.43036661e-05 -1.07786254e-04 1.14090901e-04 5.63284630e-05
      6.85837585e-06 1.09846297e-07 7.01227145e-06 -1.12306761e-05
      -1.75099849e-05 -1.82201984e-05 -2.95450373e-05 -1.70764324e-05
      -4.82187825e-05 -5.27844677e-05 -3.54114309e-05 -8.95302674e-06
      3.66632739e-05 3.17928570e-05 2.06848599e-05 -6.08106784e-05
      -1.12433176e-04 -4.48990104e-05 2.96100789e-05 1.37938932e-05
      1.19236402e-05 -1.05341887e-05 -2.37578060e-05 8.80763109e-05
      8.35834944e-05 6.28804046e-05 2.37933491e-05 1.16888714e-05
      -1.07641317e-05 -1.36189692e-05 -1.80950065e-05 -2.82077308e-05
      -1.42585204e-05 -5.80883388e-05 -5.49514152e-05 -3.32523887e-05
      -5.24865436e-06 4.15497889e-05 3.98957200e-05 1.59911106e-05
      -6.65777043e-05 -7.68198734e-05 -3.31646479e-05 7.38509380e-06
      9.72998987e-06 -5.16512060e-08 1.65610948e-06 1.39796666e-05
      7.05407874e-05 5.22576956e-05 8.74856123e-05 9.24636552e-05
      3.78782315e-05 5.31864316e-06 1.55167800e-05 1.88301638e-05
      1.90769824e-05 3.37419988e-05 -1.20193145e-05 -1.00745710e-05
      1.05740683e-05 6.15206091e-07 2.95584869e-05 3.56065466e-05
      4.08262395e-06 -5.20440299e-05 -2.35428761e-05 -3.37133788e-05
      -2.60634151e-05 7.82063125e-06 -1.53760482e-06 2.79567007e-06
      1.19032584e-05 4.98042427e-05 3.57954923e-05 4.92178369e-05
      7.72819549e-05 7.73215288e-05 4.04618659e-05 4.11130131e-05
      9.38897210e-05 1.13489063e-04 1.29679480e-04 8.69192518e-05
      6.85415798e-05 5.17416229e-05 1.58677612e-05 2.24110117e-05
      8.24216659e-06 -3.61899438e-05 -4.03962258e-05 -4.43887620e-05
      -3.76412136e-05 -5.96662394e-05 -1.82011572e-05 -3.79631342e-06
      2.66956067e-06 1.76769881e-05 3.99065029e-05 2.02261763e-05
      3.56433447e-05 4.31421940e-05 5.74283695e-05 7.91788771e-05
      1.02666927e-04 1.42054021e-04 1.58846116e-04 1.68347207e-04
      1.32464265e-04 1.43486541e-04 1.16418203e-04 9.05161796e-05
      8.34766179e-05 3.88374283e-05 -8.87991064e-06 -1.27769927e-05
      -5.21524889e-05 -2.10099934e-05 -3.71493625e-05 5.30790112e-06
      6.53660163e-06 3.85133944e-06 2.41914095e-05 3.51306917e-05
      1.45097747e-05 3.10615978e-05 2.74929389e-05 2.90172320e-05
      4.94248343e-05 1.01093450e-04 1.01197205e-04 1.21781333e-04
      1.24060345e-04 9.44520070e-05 1.20640711e-04 1.20823206e-04
      6.43494277e-05 5.51375706e-05 3.23797394e-05 -1.47505116e-05
      -4.56505331e-05 -5.94672128e-05 -2.73782334e-05 -2.95190966e-05
      1.61821736e-05 2.90993721e-05 5.41039153e-05 5.55552833e-05
      2.59404442e-05 1.51766626e-05 2.73198875e-05 1.69950872e-05
      1.23827522e-05 1.35321325e-05 7.44743229e-05 6.47654160e-05
      8.26210889e-05 8.75871192e-05 5.31399019e-05 8.45670656e-05
      1.06077256e-04 3.20728359e-05 2.42283331e-05 4.29703414e-06
      -2.26897773e-05 -4.70870000e-05 -6.22386215e-05 -1.90575520e-05
      -3.31165393e-05 1.26029172e-05 3.31116607e-05 6.31570874e-05
      1.04073348e-04 2.61524237e-05 1.64734793e-05 2.06477253e-05
      1.25619044e-05 1.58728963e-05 7.43888813e-06 4.17033662e-05
      6.16469406e-05 7.20443204e-05 6.15617246e-05 2.69304455e-05
      5.17606713e-05 4.94786800e-05 9.73528313e-06 -5.29102772e-06
      -5.61367733e-06 -1.95374814e-05 -4.72033898e-05 -6.19046405e-05
      -1.56937094e-05 -3.41857194e-05 1.31946981e-05 3.36474950e-05
      6.01069441e-05 1.18192467e-04 2.44936709e-05 1.68111310e-05
      1.74857978e-05 1.41846631e-05 1.51794729e-05 1.28303127e-05
      4.48185820e-05 6.10658244e-05 3.91378017e-05 3.49534639e-05
      7.72773365e-06 2.90167864e-05 5.51241683e-05 2.01727162e-05
      -5.90907439e-06 -1.30107719e-05 -1.24538710e-05 -4.68830003e-05
      -6.14651799e-05 -1.28133033e-05 -3.38484715e-05 9.05992238e-06
      3.28507194e-05 5.42503840e-05 9.36203433e-05 2.43558970e-05
      1.49565340e-05 1.26234163e-05 1.18442840e-05 1.72851469e-05
      1.85138779e-05 3.75826057e-05 2.92570476e-05 3.77518445e-05
      3.80986712e-05 2.26268457e-05 3.93600312e-05 5.74331680e-05
      3.06498114e-05 2.08403326e-05 -1.25293373e-05 1.28217553e-05
      -4.92737418e-05 -5.62445421e-05 -8.47244701e-06 -3.58732868e-05
      -8.88027989e-06 2.92828754e-05 7.02025427e-05 7.18493902e-05
      2.34577656e-05 1.61928128e-05 9.58871988e-06 1.02703989e-05
      1.91001945e-05 1.40308321e-05 1.60261570e-05 2.90224925e-05
      4.68105573e-05 4.31388435e-05 2.61205769e-05 2.57096490e-05
      4.92454928e-05 3.28884526e-05 1.40825787e-05 -1.69959421e-05
      -2.91860797e-05 -5.22706723e-05 -5.58432585e-05 -7.94814514e-06
      -4.03998856e-05 -2.15682994e-05 4.37476665e-05 8.74729885e-05
      5.82343637e-05 2.06723143e-05 1.75894511e-05 1.09522780e-05
      9.59628051e-06 1.79478793e-05 -5.18161596e-06 1.81109172e-05
      3.68814617e-05 5.15975589e-05 3.96930627e-05 2.99949334e-05
      1.78408973e-05 3.52964889e-05 2.33148785e-05 9.20873572e-06
      -1.66350565e-05 -6.59474026e-05 -5.65124756e-05 -7.08036459e-05
      -5.98374345e-06 -2.68310832e-05 9.41372673e-06 4.19999305e-05
      5.17580665e-05 2.04112039e-05 2.15672917e-05 2.14491411e-05
      1.36100207e-05 7.60215607e-06 1.81146061e-05 -5.19150490e-06
      1.79920899e-05 3.22291489e-05 4.23379315e-05 3.29596733e-05
      3.54106814e-05 2.24852065e-05 1.16329520e-05 4.59522107e-06
      2.32852417e-05 -6.29802662e-06 -7.13733680e-05 -5.69008116e-05
      -4.47055645e-05 -8.96874496e-07 -3.04188943e-05 2.45838582e-05
      3.46897032e-05 4.47956118e-05 -1.92497901e-05 2.21984446e-05
      2.28995741e-05 1.76371177e-05 1.06541229e-05 2.22601557e-05
      7.92170340e-06 2.15152086e-05 3.45279259e-05 4.05114733e-05
      2.76000919e-05 3.81521459e-05 2.25481162e-05 -2.04089520e-05
      1.23474706e-06 2.20395359e-05 -2.60188772e-05 -5.06699253e-05
      -3.90911482e-05 -2.32722068e-05 3.82084227e-06 -3.84014820e-05
      -1.25649449e-05 3.44085020e-05 2.09559275e-05 -7.33392790e-06
      1.37037114e-05 2.09676327e-05 2.34516738e-05 1.42282870e-05
      -5.41469672e-06 1.37893367e-05 2.34568961e-05 8.77682169e-07
      -7.08936523e-06 -3.68209803e-05 -1.31411389e-05 -1.28547863e-05
      -2.55422747e-05 -1.50631251e-06 1.34146003e-05 -9.20465209e-06
      -1.63991026e-05 -1.37113539e-05 1.21830080e-05 2.01746097e-05
      -2.22150411e-05 -1.49729631e-05 2.43791765e-05 1.63513250e-05
      2.61709192e-05 1.48150712e-05 2.03795935e-05 2.08916954e-05
      2.64301661e-06 -7.14723501e-06 1.64674057e-05 2.30006117e-05
      -1.75282457e-05 -5.04664204e-05 -8.69453070e-05 -7.17554794e-05
      -5.62438763e-05 -1.46208558e-05 -1.47209003e-05 5.10889549e-06
      -8.88007264e-07 -5.28275905e-06 -1.72448688e-06 3.27026210e-05
      6.01715192e-06 -1.48946692e-05 -7.13003965e-06 2.80988388e-05
      1.24840080e-05 2.28867320e-05 1.71524607e-05 3.82836197e-06
      1.32507403e-05 4.33080550e-06 -1.63096211e-05 -1.60317620e-06
      1.07295573e-05 3.61997513e-06 -2.85744791e-05 -8.69275682e-05
      -8.51768418e-05 -6.72538808e-05 -2.11911756e-05 -9.31908198e-06
      2.56843578e-05 4.22401808e-06 -1.13518363e-05 -6.52727067e-06
      2.83176050e-05 -4.86576073e-06 -2.23152674e-05 -1.77892271e-05
      2.67992600e-05 2.57126321e-05 1.99225724e-05 2.05020315e-05
      -8.49877893e-07 1.53396468e-05 -3.06746801e-06 -2.65076415e-05
      -9.43740451e-06 4.13581120e-06 1.32154628e-06 -1.13112765e-06
      -4.17146039e-05 -5.93683944e-05 -2.11134102e-05 2.57706997e-05
      2.58716900e-05 3.52802235e-05 4.56748239e-06 -7.57633552e-06
      4.35114134e-06 4.02024416e-05 -5.84997224e-06 -1.78765731e-05
      -1.88105132e-05 3.69105874e-05 6.65974731e-05 3.77688812e-05
      1.44382811e-05 -1.34826196e-05 1.43756679e-05 -2.95971449e-06
      -2.05669439e-05 8.77680236e-07 6.95580502e-06 3.31993476e-07
      -1.51680370e-05 -2.89007130e-05 -5.29402168e-05 -2.53598100e-05
      2.84807302e-05 2.46841828e-05 4.44019206e-05 7.79769653e-06
      5.14228077e-06 4.08141241e-05 4.36459268e-05 4.39124551e-06
      -1.42696390e-05 -7.24494885e-06 3.73751427e-05 4.85776945e-05
      6.17981204e-05 7.71600571e-06 -1.39919193e-05 1.78583268e-05
      6.77485423e-06 -8.88081013e-06 2.00476188e-06 1.16613046e-05
      9.16693352e-06 -7.60703688e-06 -1.82186213e-05 -2.62710855e-05
      -7.65672485e-06 4.04940583e-05 2.57550910e-05 4.44835205e-05
      7.58893157e-06 -1.70720632e-05 2.40796344e-05 3.98379925e-05
      -1.11219356e-06 -5.59799673e-06 1.54968220e-05 5.17314256e-05
      4.69789738e-05 6.05954629e-05 1.22555011e-05 -3.33690764e-06
      2.32375878e-05 1.84094297e-05 9.71060308e-06 6.52081872e-06
      8.87491206e-06 1.12102061e-05 -1.18327512e-06 -1.49072921e-05
      -8.66481150e-06 -7.83995446e-08 4.44893740e-05 4.10952343e-05
      3.66442728e-05 3.81709651e-06 -2.06970562e-05 -9.78055778e-06
      3.31340052e-05 -5.85844418e-06 5.06498145e-06 1.55956113e-05
      3.65228807e-05 4.54933106e-05 5.23007948e-05 2.10251310e-05
      1.25546412e-05 1.16721540e-05 3.89216621e-05 1.79498093e-05
      2.02452957e-05 9.42220595e-06 1.42536301e-05 -1.40270113e-05
      -3.61943275e-05 -1.41764158e-05 -2.02849442e-05 2.75582643e-05
      3.86994361e-05 3.67556459e-05 3.14958270e-05 -2.37091008e-05
      -1.43367370e-05 1.79501167e-05 -2.43857648e-05 1.03359098e-05
      3.50498590e-06 3.48847134e-05 4.23577112e-05 2.45967349e-05
      3.66843633e-05 3.79459452e-05 1.19465608e-06 -2.22694362e-05
      -3.57580429e-05 -2.63837064e-05 -2.36194101e-05 -1.61322714e-05
      -4.58122304e-05 -6.91440146e-05 -4.32307534e-05 -6.74473413e-05
      -2.80451386e-05 -1.49209600e-05 -1.72866148e-05 6.36187315e-06
      -2.13410713e-05 -4.03836093e-05 -6.90834349e-06 -5.62534042e-05
      -8.07523065e-06 1.18484218e-06 4.27792402e-05 4.55874178e-05
      3.43044485e-05 4.57886745e-05 3.57235222e-05 -3.75092459e-05
      -6.90079032e-05 -8.42587688e-05 -4.87444413e-05 -2.19273843e-05
      -9.06840069e-06 -1.58859257e-05 -2.15956770e-05 3.07474147e-06
      -5.60683147e-05 -5.44577888e-05 -1.44209534e-05 -4.34789181e-05
      -2.26657139e-05 -1.85706958e-05 -3.36127487e-05 -1.88226750e-06
      -6.30028662e-05 -2.08163201e-05 2.71753925e-06 5.47222990e-05
      6.24530439e-05 3.26809895e-05 3.39363287e-05 -1.83750781e-05
      -5.11047874e-05 -6.90094384e-05 -7.29312960e-05 -3.33178104e-05
      -6.24826680e-06 6.49767208e-06 -1.03055208e-05 -9.13739586e-06
      4.16896273e-06 -5.98053957e-05 -6.68974317e-05 -1.64486264e-05
      -4.34874673e-05 -2.29683374e-05 -2.03316285e-05 -2.04773023e-05
      -1.57799468e-06 -2.82046549e-05 -1.92028419e-05 1.07310143e-05
      1.10066649e-04 9.30262249e-05 2.72380385e-05 1.78219361e-05
      -3.77365504e-05 -4.74305343e-05 -5.99967170e-05 -6.01034808e-05
      -2.09998034e-05 3.25823021e-06 2.37424392e-05 1.92509492e-06
      -2.15449418e-07 1.08570239e-05 -5.73830112e-05 -2.75578022e-05
      -1.90330375e-05 -4.44508805e-05 -2.71915123e-05 -2.33986721e-05
      -2.86937848e-06 4.83972281e-06 -1.77911170e-05 -1.99099031e-06
      7.51147381e-05 1.36910967e-04 8.26354444e-05 2.62643134e-05
      1.28979436e-05 -3.73381117e-05 -5.00887509e-05 -5.10327664e-05
      -4.97530382e-05 -1.65370693e-05 3.58215652e-06 2.70194032e-05
      -3.65514916e-06 -1.47848937e-06 6.98295753e-06 -6.76109776e-05
      -2.08351557e-05 -2.56571257e-05 -6.39712453e-05 -2.50794928e-05
      -2.77215076e-05 6.92789126e-06 1.21879029e-05 2.36921060e-05
      5.47700402e-05 1.15652845e-04 9.10018134e-05 3.69631234e-05
      2.46842555e-05 8.09339781e-06 -3.74890260e-05 -4.55177287e-05
      -4.82556497e-05 -5.29117970e-05 -2.15645232e-05 5.68800306e-06
      3.45769658e-05 -2.68248982e-06 -3.84174382e-06 1.23327902e-06
      -7.32456319e-05 -1.61574990e-05 -3.51552990e-05 -4.84293196e-05
      -1.03144866e-05 -3.12693664e-05 -9.11732877e-06 -4.46581225e-06
      -3.29885588e-05 1.71872798e-05 8.51303776e-05 6.94625996e-05
      2.93624234e-05 2.05990655e-05 1.67534618e-05 -1.51771883e-05
      -4.40180738e-05 -5.04448872e-05 -5.44819195e-05 -2.35094412e-05
      7.40303085e-06 3.45213812e-05 2.81196299e-06 -1.21459116e-05
      -1.38524092e-05 -6.34568059e-05 -9.43861596e-06 -2.92042987e-05
      -3.94683047e-05 -2.26123975e-05 -4.00448844e-05 -9.02197917e-06
      1.56610113e-07 -4.93027837e-05 -3.34443430e-05 5.80222004e-05
      6.93258989e-05 2.20113416e-05 6.86769272e-06 2.43335762e-05
      4.46175363e-05 -6.32529145e-06 -5.26839503e-05 -4.53041102e-05
      -2.43858212e-05 1.35967439e-05 3.55692064e-05 7.30013289e-06
      -8.76652120e-06 -8.49097160e-06 -5.91140415e-05 -7.24513075e-06
      -2.53072340e-05 -4.02637233e-05 -1.68028564e-05 -3.74421506e-05
      -1.26278956e-05 -3.57388421e-06 -2.84888411e-05 -5.55812694e-05
      1.91542949e-05 7.01776808e-05 2.11589922e-05 2.73377304e-06
      2.85410915e-05 5.61263769e-05 4.98149275e-05 3.12489465e-06
      7.06535275e-06 2.44217063e-05 6.67249988e-05 8.82608001e-05
      2.38274752e-05 -3.01757336e-06 -1.74824327e-05 -6.00937310e-05
      -8.92086246e-06 -2.34474992e-05 -4.01097168e-05 -1.19061142e-05
      -3.09379611e-05 -1.05664367e-05 -8.61197896e-06 -2.86843660e-05
      -5.07130862e-05 -2.67556752e-05 6.48074492e-05 2.44999883e-05
      8.49623291e-07 3.24597422e-05 5.46329356e-05 4.79183691e-05
      4.13876769e-05 5.55647130e-05 7.10058739e-05 1.09953937e-04
      1.34381422e-04 9.31201430e-05 9.36233628e-05 6.33388045e-05
      1.09216771e-05 7.76022644e-05 6.03993612e-05 -8.33864306e-06
      -8.94632740e-06 -2.91262859e-05 -1.03688926e-05 -1.73264816e-05
      -2.97241313e-05 -3.22963933e-05 2.31716112e-05 6.46727058e-05
      2.15560030e-05 3.39118014e-06 3.11058029e-05 5.03564806e-05
      4.51404339e-05 4.02882433e-05 5.53928621e-05 6.63435785e-05
      1.00791389e-04 1.23352293e-04 9.43336054e-05 1.16505667e-04
      8.30905628e-05 2.67162977e-05 7.53432541e-05 6.76703130e-05
      -4.18204172e-06 -1.48161280e-05 -3.27095695e-05 -2.30008345e-06
      -2.45726878e-05 -2.98590803e-05 -3.12839693e-05 3.16335172e-05
      6.73870672e-05 2.80092299e-05 9.98472933e-06 3.35940022e-05
      4.85497803e-05 4.65723206e-05 4.32290617e-05 5.26402109e-05
      6.43387393e-05 9.24624474e-05 1.14056791e-04 8.74916150e-05
      1.15435716e-04 7.47542945e-05 2.64767950e-05 4.45190235e-05
      3.53547402e-05 -4.44444095e-06 -2.01093317e-05 -1.51849554e-05
      7.67702932e-06 -1.57398863e-05 -2.23854040e-05 7.92631272e-06
      3.32151540e-05 5.65708287e-05 2.87541807e-05 9.51334823e-06
      3.31759693e-05 5.34025457e-05 5.65306145e-05 4.02762635e-05
      4.70688574e-05 5.94174890e-05 6.91934692e-05 8.80091466e-05
      5.74517835e-05 8.24261660e-05 4.37355047e-05 2.34137515e-05
      4.52579843e-05 1.29690907e-05 -3.14391000e-05 -2.27000164e-05
      -9.75974217e-06 1.50899114e-05 -1.26601853e-05 -9.89707951e-06
      3.14429235e-05 1.02929680e-05 3.25018918e-05 2.50383673e-05
      6.92032972e-06 3.34899560e-05 5.20203830e-05 5.78289473e-05
      5.75970116e-05 4.33346358e-05 3.49059774e-05 9.55304677e-06
      1.84973069e-05 -1.41103474e-05 1.22905258e-05 -1.81585583e-05
      -2.01199346e-05 2.23582829e-05 5.98479073e-06 -5.51397388e-05
      -2.65581348e-05 -1.16421106e-05 1.48679610e-05 -9.64483752e-06
      -9.16382669e-06 3.98061929e-05 1.62583983e-05 2.85436781e-05
      2.39355777e-05 1.48417075e-05 2.08029905e-05 4.19428834e-05
      4.65506237e-05 5.12669794e-05 4.75875413e-06 -3.02225617e-05
      -3.80190249e-05 -2.86172071e-05 -6.11218275e-05 -2.69768625e-05
      -3.45140143e-05 -2.60254365e-05 -1.20604509e-05 2.88288702e-05
      -3.84794548e-05 -3.30272778e-05 -1.35645296e-05 2.31219819e-05
      -7.29642397e-06 -2.05393953e-05 3.18204366e-05 2.12763789e-05
      3.16097940e-05 2.81495486e-05 1.63552286e-05 8.69211271e-06
      3.12671473e-05 2.50644061e-05 -9.80066125e-06 -5.88838957e-05
      -6.46427652e-05 -6.68003704e-05 -5.59476866e-05 -5.77363680e-05
      -4.72750689e-05 -3.21582265e-05 -3.11444055e-05 -2.88349329e-05
      -3.05249182e-06 -2.55059094e-05 -4.12830777e-05 -1.72435266e-05
      1.61067619e-05 -3.56433738e-05 -5.24407224e-05 1.40831326e-05
      2.63363381e-05 3.90584864e-05 2.52924183e-05 1.79587241e-05
      4.41049906e-06 2.68964486e-05 -1.57292034e-05 -5.58150386e-05
      -7.53471686e-05 -7.36539878e-05 -7.46578953e-05 -6.08548544e-05
      -5.62198838e-05 -4.36676673e-05 -3.38555037e-05 -3.53764626e-05
      -4.05144965e-05 -8.92456512e-07 -3.18741077e-05 -6.51458831e-05
      -2.00187169e-05 -1.37980460e-05 -5.66716553e-05 -4.07355365e-05
      2.51523270e-05 3.97281547e-05 3.81264945e-05 2.31192971e-05
      1.93850428e-05 1.42299277e-05 -4.36425216e-06 -5.28801611e-05
      -6.36106997e-05 -6.97331197e-05 -6.84413681e-05 -6.69743240e-05
      -4.64462100e-05 -5.34538631e-05 -5.84593618e-05 -4.38214811e-05
      -5.14242492e-05 -4.98583431e-05 -3.81067321e-06 -5.22637965e-05
      -8.97522768e-05 -2.05616307e-05 -1.87643163e-05 -6.39371065e-05
      -3.98832271e-05 2.65657090e-05 5.68645555e-05 5.64321999e-05
      3.24253378e-05 2.08337588e-05 2.07705671e-05 -3.65296819e-06
      -1.90340033e-05 -3.13383716e-05 -3.25137298e-05 -3.14027639e-05
      -2.44719922e-05 -2.99915837e-06 -1.98720772e-05 -3.09844690e-05
      -2.49261502e-05 -6.39097634e-05 -7.07055369e-05 -1.48098361e-05
      -4.99173293e-05 -7.02402322e-05 -1.33237181e-05 -1.97414211e-05
      -5.78422078e-05 -1.85139870e-05 4.25891812e-05 4.67085447e-05
      5.78388644e-05 3.56763412e-05 3.16187034e-05 -9.71612189e-06
      1.16040019e-05 9.86479790e-07 -1.49462148e-05 -1.74464458e-05
      -1.31595916e-05 -5.33013690e-06 6.26914652e-06 -2.57848424e-05
      -3.45861845e-05 -1.32292571e-05 -3.95538627e-05 -7.22603509e-05
      -4.19770586e-05 -1.49062998e-05 -3.57363824e-05 -3.37330312e-05
      6.03519402e-06 3.17371723e-06 4.63445103e-05 8.33983358e-05
      4.55391673e-05 4.97308392e-05 4.03374797e-05 4.48842402e-05
      -1.13226479e-05 9.25370023e-06 2.45544334e-06 -8.78350147e-06
      -1.11786312e-05 -7.31315686e-06 -1.51220611e-05 -1.59749761e-05
      -3.05202047e-05 -3.96180112e-05 -2.73079913e-05 -5.72038971e-06
      -6.35660690e-05 -2.96338694e-05 -1.38487312e-05 -4.01679208e-05
      -4.92540967e-05 -1.17041782e-05 4.63741562e-05 9.84446087e-05
      6.39395075e-05 2.97557272e-05 4.47729653e-05 4.11661276e-05
      4.82528303e-05 4.09654676e-05 1.68942843e-05 -8.28510838e-06
      -2.21987975e-05 -2.72847210e-05 -2.48483630e-05 -2.99812418e-05
      -1.41780447e-05 -2.41855378e-05 -1.50167571e-05 -1.45474987e-05
      2.78552161e-05 -2.31016966e-05 -4.65894482e-06 -1.75340153e-06
      -1.73854969e-05 -5.52656638e-05 2.28664921e-05 6.84626502e-05
      5.13498126e-05 2.40059544e-05 4.91009632e-05 3.98800803e-05
      3.92872753e-05 4.81575007e-05</_>
    <_>
      5.75546874e-05 4.53840803e-05 7.82967618e-06 -1.28617285e-05
      -1.68411100e-06 2.01343482e-05 1.84063592e-05 2.03227755e-05
      4.42728924e-05 5.13053055e-05 5.05635762e-05 5.94720041e-05
      5.99548548e-05 6.77621429e-05 5.88920557e-05 2.16533099e-05
      5.90489617e-06 1.59148549e-05 1.37060742e-05 1.00011221e-05
      1.69034174e-05 3.47566165e-05 3.63674153e-05 3.30589683e-05
      3.75965756e-05 4.81336610e-05 1.94704935e-05 -2.41172074e-05
      -3.24560824e-05 -2.45127485e-05 -7.96589848e-06 1.00650977e-05
      9.00887972e-06 4.32771667e-05 5.04525997e-05 5.07880031e-05
      5.77397805e-05 6.19239727e-05 7.34947680e-05 6.16235848e-05
      3.29713766e-05 7.45072839e-07 1.33747299e-05 1.00012248e-05
      -8.92052958e-06 -5.25701762e-06 2.59104108e-05 2.46392083e-05
      7.58160513e-06 1.68860170e-05 1.82436524e-05 -3.94845083e-05
      -5.25868309e-05 -5.32112463e-05 -4.35923866e-05 -3.16751102e-05
      -1.40458224e-05 -1.21718344e-07 4.71224666e-05 5.21638249e-05
      4.85315359e-05 5.68027208e-05 5.88120420e-05 6.91020541e-05
      5.20680296e-05 3.47731911e-05 -2.04664752e-06 3.84381110e-06
      -8.90597039e-06 -2.19260182e-05 -7.67130950e-06 1.87475907e-05
      1.42354866e-05 -5.32177773e-06 -1.07915939e-05 1.75127007e-05
      -5.87697577e-05 -6.47158886e-05 -6.27259287e-05 -6.18200138e-05
      -5.52203455e-05 -3.54873555e-05 -1.88803970e-05 3.70939924e-05
      5.21859984e-05 4.90327002e-05 5.70072662e-05 5.54731050e-05
      5.45811308e-05 4.12345798e-05 3.49077236e-05 1.86733678e-06
      -2.25368694e-07 -2.62098420e-05 -2.71657009e-05 -2.60942579e-06
      -1.73787453e-06 -2.07262674e-05 -2.72376019e-05 -9.69705707e-06
      2.19607737e-05 -5.95412639e-05 -7.90462145e-05 -5.12575753e-05
      -3.85664280e-05 -6.01346292e-05 -5.29731442e-05 -1.45328167e-05
      2.30916285e-05 4.59807852e-05 4.99154012e-05 6.02458604e-05
      5.57742969e-05 5.36602383e-05 3.99063829e-05 3.47695786e-05
      7.15171473e-06 -1.16055562e-05 -3.30018083e-05 -3.12808879e-05
      -1.55295347e-05 -2.49913519e-05 -2.45521769e-05 -2.46454329e-05
      -7.35139474e-06 2.23600146e-05 -6.77584248e-05 -8.18461049e-05
      -4.30158470e-05 -3.03618490e-05 -5.83091205e-05 -3.07443988e-05
      -1.73402805e-05 6.60250316e-06 4.10053035e-05 7.09664382e-05
      8.31056241e-05 4.53499597e-05 5.20466456e-05 4.24925893e-05
      3.65433589e-05 1.80795414e-05 -1.63178265e-05 -3.39045691e-05
      -3.72269460e-05 -2.93888934e-05 -2.60957349e-05 -2.45579758e-05
      -2.03055697e-05 -3.78248819e-06 1.97980844e-05 -7.19404125e-05
      -6.95404233e-05 -2.87410385e-05 -2.77575000e-05 -5.64237089e-05
      -2.41893995e-05 -2.26195561e-06 1.36597873e-05 4.00042481e-05
      7.60091934e-05 7.94814041e-05 2.07523790e-05 3.15551879e-05
      4.33468849e-05 3.89942397e-05 1.53663623e-05 -2.58857963e-05
      -3.97447402e-05 -4.99330708e-05 -3.16289588e-05 -3.05454741e-05
      -2.41780344e-05 -1.69684117e-05 -1.67813153e-06 1.57619288e-05
      -6.77173884e-05 -6.48779096e-05 -5.62692439e-05 -3.46014494e-05
      -3.34104661e-05 -2.66128154e-05 4.34833254e-07 2.66107490e-05
      5.77780120e-05 6.21133950e-05 4.98281443e-05 1.47459168e-05
      2.34062099e-05 4.23068632e-05 4.53442190e-05 2.41914004e-05
      -2.85309816e-05 -4.54375440e-05 -5.21023612e-05 -3.46342531e-05
      -3.30082221e-05 -2.37915610e-05 -1.35566779e-05 -3.39203382e-07
      1.99292808e-05 -4.37682829e-05 -6.07143775e-05 -6.34526514e-05
      -6.60121077e-05 -6.57593846e-05 -6.27419868e-05 -3.42259482e-05
      -6.33991567e-06 4.33129462e-05 4.54374058e-05 4.33915375e-05
      1.34564207e-05 9.00104260e-06 1.72791079e-05 5.03328956e-05
      3.66084314e-05 -2.18498481e-05 -4.02155674e-05 -5.08084704e-05
      -3.53109135e-05 -3.27513517e-05 -2.45253286e-05 -1.23448026e-05
      1.57597952e-07 2.03812378e-05 -3.87580185e-05 -6.36666373e-05
      -6.53776005e-05 -6.68006760e-05 -6.70634472e-05 -6.43827298e-05
      -3.64115403e-05 -3.43152215e-06 4.67948339e-05 5.57574822e-05
      2.53599883e-05 1.50410351e-05 9.55605060e-07 1.16666688e-05
      5.46857227e-05 4.22474259e-05 -1.32487539e-05 -3.49830880e-05
      -4.41733682e-05 -3.49546826e-05 -3.14327917e-05 -2.30385103e-05
      -1.24748694e-05 2.10879261e-06 9.28791087e-06 -4.51737396e-05
      -6.42504237e-05 -6.46589251e-05 -6.47389897e-05 -6.53890165e-05
      -6.53885945e-05 -3.59129444e-05 -1.16567639e-06 5.26676449e-05
      6.73787654e-05 3.26546906e-05 1.74574307e-05 -1.76679100e-06
      1.17640238e-05 5.68817049e-05 4.47854436e-05 -5.94756193e-06
      -2.67791438e-05 -4.89649683e-05 -2.49502045e-05 -2.02461397e-05
      -1.98835460e-05 -1.37975112e-05 5.95491747e-06 4.28752173e-05
      -1.50892247e-05 -2.96134222e-05 -2.84754387e-05 -2.72895122e-05
      -3.86324537e-05 -6.43763269e-05 -3.99463679e-05 -2.38207213e-06
      5.62558744e-05 7.10789536e-05 5.82446737e-05 3.27415364e-05
      -5.50593131e-06 9.40328107e-07 4.28825006e-05 2.66305633e-05
      -7.61286083e-06 -2.26085158e-05 -4.27580708e-05 -1.97595346e-05
      -1.78252121e-05 -1.42383333e-05 -1.15873127e-05 1.57219674e-05
      6.02103355e-05 -1.10100746e-05 -2.85724873e-05 -2.86788127e-05
      -2.45022311e-05 -2.98941941e-05 -3.70484522e-05 -3.68077344e-05
      -3.69446980e-06 5.56717314e-05 6.93020556e-05 5.84558911e-05
      4.96566026e-05 4.92547952e-06 -7.59750264e-06 7.90307331e-06
      1.78787395e-05 -9.24691994e-06 -2.23198149e-05 -4.12727859e-05
      -1.73550725e-05 -1.75401929e-05 -1.47017017e-05 -7.77769037e-06
      3.64524640e-05 6.38390484e-05 -1.03931588e-05 -2.87765743e-05
      -2.86047471e-05 -2.40973786e-05 -2.82011224e-05 -2.68539006e-05
      -2.62116682e-05 -2.96623125e-06 5.73819780e-05 7.04357808e-05
      6.26658657e-05 5.68075520e-05 1.95671669e-06 -1.43758814e-06
      -8.59476677e-06 1.54880145e-05 -1.27297571e-05 -2.27841738e-05
      -1.84845903e-05 -1.55475609e-05 -1.74947818e-05 -1.51120712e-05
      -5.35164008e-06 4.09506647e-05 4.11333567e-05 -1.63401273e-05
      -2.98066479e-05 -2.99864914e-05 -2.51159727e-05 -2.55030827e-05
      -2.22387298e-05 -1.72346117e-05 -1.20793868e-06 5.86791648e-05
      7.47849481e-05 7.17245130e-05 6.38423808e-05 6.72306169e-06
      -7.99518784e-06 -1.78216560e-05 1.09491166e-05 -9.92881360e-06
      -1.79213530e-05 -5.59629916e-06 -1.57795002e-05 -1.73457865e-05
      -1.48996596e-05 -6.05867490e-06 3.75804593e-05 2.60004199e-05
      -2.96536928e-05 -3.27638045e-05 -3.07013070e-05 -2.48604774e-05
      -2.14474148e-05 -2.01030889e-05 -8.34972525e-06 1.59038609e-05
      6.54784963e-05 7.82805000e-05 7.72247877e-05 5.40261462e-05
      1.18612043e-05 -1.86401685e-05 -1.41230903e-05 7.84234271e-06
      -9.84682629e-06 -1.38512032e-05 -3.18764614e-06 -1.41422779e-05
      -1.37280776e-05 -1.64229259e-05 -5.67517100e-06 3.68302244e-05
      1.22269803e-05 -3.26299269e-05 -3.89650268e-05 -3.54415024e-05
      -2.30402275e-05 -2.10637772e-05 -9.69695702e-06 8.05469335e-06
      2.19466547e-05 6.79846416e-05 7.91753482e-05 7.81539929e-05
      5.61748202e-05 1.23086966e-05 -1.85294375e-05 -1.35694445e-05
      6.38333222e-06 -1.54805184e-05 -1.35426308e-05 -1.91518666e-06
      -5.58008014e-06 -8.35057836e-06 -1.76169015e-05 -5.36316111e-06
      4.44366560e-05 2.84024532e-06 -3.19265419e-05 -4.59314833e-05
      -4.07637344e-05 -2.32449893e-05 -2.08024176e-05 -7.33054594e-06
      1.03664615e-05 1.67617272e-05 5.98094775e-05 7.13852496e-05
      7.01595272e-05 5.45887851e-05 1.61011612e-05 -1.84180080e-05
      -1.27203593e-05 5.28018020e-08 -2.05180513e-05 -1.83654829e-05
      -3.26281202e-06 7.00051032e-07 -4.20779588e-06 -1.83079537e-05
      -5.40241626e-06 4.48505125e-05 -2.93775065e-06 -3.44630716e-05
      -4.56213820e-05 -3.61438942e-05 -2.32953116e-05 -2.05373144e-05
      -5.66091421e-06 1.34674710e-05 1.83585598e-05 6.00109815e-05
      7.02652615e-05 7.01162571e-05 5.40017827e-05 2.26651719e-05
      -1.73696299e-05 -1.29766931e-05 -1.40182237e-06 -2.16807148e-05
      -1.45518507e-05 -3.50973073e-06 1.80078587e-06 -3.66753875e-06
      -1.94405784e-05 -1.15402163e-05 3.29369432e-05 -8.43507223e-06
      -4.31198387e-05 -4.36502305e-05 -3.31033698e-05 -2.48455544e-05
      -2.09984410e-05 -8.30061708e-06 -7.94733353e-07 9.62806826e-06
      5.33825005e-05 5.89811898e-05 5.95204365e-05 4.18344316e-05
      2.38428420e-05 -1.71242009e-05 -1.70825406e-05 3.38038240e-06
      -1.80581155e-05 -2.00941013e-05 -2.86782597e-06 2.98083273e-06
      3.42772211e-07 -1.40434440e-05 -2.00903360e-05 2.69721677e-05
      -1.80321531e-05 -4.60523115e-05 -4.29153260e-05 -3.23948188e-05
      -2.60023044e-05 -2.02315296e-05 -3.47018686e-05 -3.49218863e-05
      -2.91934484e-05 9.97049142e-07 5.40310793e-06 4.30455339e-06
      5.30218540e-06 9.75045282e-07 -3.29128525e-05 -2.46874697e-05
      -5.09111851e-06 -2.86612121e-05 -1.67270991e-05 -4.48620131e-06
      8.87418651e-07 4.60339788e-06 -8.43004273e-06 -2.07700778e-05
      2.41362795e-05 -1.35806422e-05 -4.55855516e-05 -4.22424164e-05
      -3.04688347e-05 -1.24695798e-05 -1.75793484e-05 -4.43749559e-05
      -3.68777401e-05 -3.30957664e-05 -1.17777918e-05 -1.25438301e-05
      -1.42510007e-05 -5.29643785e-06 -1.28056290e-05 -5.53623213e-05
      -4.64524528e-05 -1.93998658e-05 -2.20187940e-05 -1.45211143e-05
      -7.82067309e-06 3.55678981e-06 6.18359263e-06 -3.21060020e-06
      -1.71765078e-05 2.38833418e-05 1.37431525e-05 -2.54344886e-05
      -3.51196213e-05 -1.63882996e-05 -2.30642509e-05 -1.75400055e-05
      -4.26371880e-05 -4.25328799e-05 -4.00927747e-05 -2.34434792e-05
      -2.66372608e-05 -2.71693061e-05 -1.57473587e-05 -1.87885889e-05
      -5.66438794e-05 -3.86969841e-05 -3.34639572e-06 -1.00803454e-05
      -1.02273489e-05 -7.23985113e-06 8.55844701e-06 7.25627660e-06
      1.42704027e-06 -1.08447957e-05 2.16945264e-05 2.39883793e-05
      -1.03982984e-05 -1.36384633e-05 -1.04485234e-05 -2.68912390e-05
      -1.69432842e-05 -4.23028250e-05 -4.62848038e-05 -4.34525755e-05
      -2.19333997e-05 -2.65371928e-05 -2.89025338e-05 -1.55360613e-05
      -1.89692710e-05 -4.52059066e-05 -3.52844545e-05 -1.67143226e-05
      -2.21163446e-05 -4.93172138e-06 1.81597989e-06 9.20702769e-06
      1.07661326e-05 9.15208238e-06 3.61870946e-07 7.87531098e-06
      3.00353258e-05 1.53723504e-05 -4.72320653e-06 -7.08686366e-06
      -2.39435958e-05 -3.20095132e-05 -5.07793557e-05 -4.93704611e-05
      -4.50806292e-05 -2.29448433e-05 -2.55202558e-05 -2.93178764e-05
      -1.54845566e-05 -2.44113789e-06 -3.62158462e-05 -5.25667347e-05
      -2.69642169e-05 -4.40886797e-05 -1.86917150e-05 6.52799190e-06
      5.07318191e-06 1.47403334e-05 1.86165034e-05 5.02518105e-06
      9.86650321e-06 -1.22529527e-05 7.58292163e-06 -3.95352254e-06
      -2.72305497e-05 -4.92699110e-05 -6.07662732e-05 -5.75990816e-05
      -5.24055067e-05 -5.01827999e-05 -2.84872258e-05 -3.25534929e-05
      -3.48791218e-05 -8.97292921e-06 -3.02088119e-05 -5.92377546e-05
      -5.38673412e-05 -2.65758499e-05 -4.46087652e-05 -2.78459993e-05
      3.34089282e-06 -8.75527007e-07 7.44621593e-06 1.92755488e-05
      9.41632243e-06 1.58006897e-05 -1.16082865e-05 1.50099995e-05
      1.28476304e-05 -9.91366164e-07 -2.72305697e-05 -3.77728611e-05
      -3.79553276e-05 -3.00310076e-05 -2.87150979e-05 -1.56562146e-05
      -3.02313019e-05 -2.81197335e-05 -3.01627861e-05 -5.24546558e-05
      -5.49704746e-05 -4.24667815e-05 -1.98357111e-06 -1.60750751e-05
      -7.00907776e-06 2.61236310e-05 2.48646338e-05 1.60694617e-05
      1.23707159e-05 1.51881777e-05 3.34806064e-05 -1.19591414e-05
      9.91992601e-06 2.27354740e-05 1.43389370e-05 5.18382149e-06
      -1.00002762e-05 -2.03690452e-05 -2.09592890e-05 -1.97355203e-05
      -1.95725934e-05 -1.93353244e-05 -1.99337210e-05 -2.90452645e-05
      -5.00493479e-05 -4.87192592e-05 -3.67979155e-05 -4.60428919e-06
      -9.05862817e-06 -9.79755532e-06 2.05504202e-05 3.12488773e-05
      2.99890271e-05 1.13901815e-05 4.31741064e-05 3.49672991e-05
      -8.19735487e-06 -1.49550317e-06 1.39533440e-05 2.52454065e-05
      1.51638160e-05 1.40251686e-05 5.78844993e-06 -4.90958701e-06
      -8.14101168e-06 -1.23778582e-05 -1.22790270e-05 -1.23939408e-05
      -2.29732068e-05 -4.29245410e-05 -4.06992149e-05 -2.95175632e-05
      -3.59119440e-07 -9.82268921e-06 -1.73473218e-05 -6.16094485e-06
      2.58660457e-05 3.15931647e-05 3.24964167e-05 7.28129817e-05
      6.06356152e-05 -4.68463350e-06 6.47201546e-08 -1.59527576e-06
      1.22062866e-05 2.98628765e-05 1.87378955e-05 1.17882810e-05
      2.42810183e-05 3.24121247e-05 1.64985304e-05 1.55611579e-05
      1.60054715e-05 -1.90270237e-06 -1.45718141e-05 -1.98485050e-05
      -1.11929521e-05 1.61648841e-05 4.09957784e-06 -8.08174264e-06
      4.09000359e-06 2.14529664e-05 2.49947225e-05 6.42968880e-05
      7.86000455e-05 7.62201380e-05 1.31915012e-05 9.81445191e-06
      2.27967957e-05 2.15266773e-05 2.15058990e-05 3.55928569e-06
      -5.70877364e-06 3.37607025e-06 2.03036161e-05 9.33025058e-06
      8.63484001e-06 9.68209406e-06 -4.31066383e-06 -1.32417802e-06
      -5.44403110e-06 1.41319833e-06 3.14886274e-05 1.61703338e-05
      -7.05134084e-07 9.96463132e-06 -1.08928016e-05 7.43731448e-07
      2.61737277e-05 6.39396894e-05 7.68488244e-05 2.40691661e-05
      2.95430254e-05 3.04717832e-05 2.80270488e-05 2.54669503e-05
      7.03260594e-06 -3.30410489e-06 -3.64473158e-06 4.25641974e-06
      9.23630523e-06 8.51567438e-06 -2.98057457e-05 -7.95465257e-06
      4.52882091e-07 -7.32902606e-07 2.53460962e-06 3.36302037e-05
      2.74003378e-05 8.22147558e-06 -1.28912297e-05 -1.42153085e-05
      -4.16917192e-06 9.83999325e-06 2.49002642e-05 6.41820661e-05
      3.00779466e-05 3.25466899e-05 3.22363267e-05 2.80856966e-05
      2.70092351e-05 2.11940769e-05 8.33595641e-06 3.98182283e-06
      6.17624664e-06 7.78340200e-06 7.55164911e-06 -3.66709646e-05
      -2.93423818e-05 -2.55378873e-05 -5.30267880e-06 3.36277571e-06
      4.07926273e-05 3.84745836e-05 -2.24522573e-05 -2.26969551e-05
      -8.40305893e-06 -5.73295392e-06 -3.38026007e-06 8.98347935e-06
      1.97623704e-05 3.49345864e-05 3.73012008e-05 3.31011288e-05
      2.81544235e-05 2.48216420e-05 2.30908317e-05 2.49046661e-05
      2.27466717e-05 1.77923412e-05 1.64248413e-05 1.78399096e-05
      -2.74242320e-05 -2.29154102e-05 -2.06985424e-05 -1.59275169e-05
      -5.93946834e-06 3.42118256e-05 4.49943127e-06 -3.92536749e-05
      -1.89221773e-05 -1.66273840e-05 -1.71154406e-05 -1.25213319e-05
      1.41181170e-06 6.21068330e-06 3.83128390e-05 3.94078816e-05
      3.32003947e-05 2.93066914e-05 2.54510342e-05 2.23210245e-05
      2.83039826e-05 2.83195477e-05 3.48703397e-05 3.58590150e-05
